<?xml version="1.0"?>
<opencv_storage>
<cascade>
  <stageType>BOOST</stageType>
  <featureType>HAAR</featureType>
  <height>24</height>
  <width>24</width>
  <stageParams>
    <boostType>GAB</boostType>
    <minHitRate>9.9500000476837158e-01</minHitRate>
    <maxFalseAlarm>5.0000000000000000e-01</maxFalseAlarm>
    <weightTrimRate>9.4999998807907104e-01</weightTrimRate>
    <maxDepth>1</maxDepth>
    <maxWeakCount>100</maxWeakCount></stageParams>
  <featureParams>
    <maxCatCount>0</maxCatCount>
    <featSize>1</featSize>
    <mode>BASIC</mode></featureParams>
  <stageNum>15</stageNum>
  <stages>
    <!-- stage 0 -->
    <_>
      <maxWeakCount>4</maxWeakCount>
      <stageThreshold>-1.8049876689910889e+00</stageThreshold>
      <weakClassifiers>
        <_>
          <internalNodes>
            0 -1 12 -1.4282286167144775e-01</internalNodes>
          <leafValues>
            7.2277230024337769e-01 -9.4525337219238281e-01</leafValues></_>
        <_>
          <internalNodes>
            0 -1 34 -1.0356402024626732e-02</internalNodes>
          <leafValues>
            8.8840806484222412e-01 -8.5419410467147827e-01</leafValues></_>
        <_>
          <internalNodes>
            0 -1 14 -8.9813992381095886e-02</internalNodes>
          <leafValues>
            7.0498788356781006e-01 -8.7622016668319702e-01</leafValues></_>
        <_>
          <internalNodes>
            0 -1 40 -8.9245792478322983e-03</internalNodes>
          <leafValues>
            8.7067997455596924e-01 -6.2196350097656250e-01</leafValues></_></weakClassifiers></_>
    <!-- stage 1 -->
    <_>
      <maxWeakCount>4</maxWeakCount>
      <stageThreshold>-1.8549129962921143e+00</stageThreshold>
      <weakClassifiers>
        <_>
          <internalNodes>
            0 -1 51 -1.0524909943342209e-02</internalNodes>
          <leafValues>
            7.5862067937850952e-01 -8.8366889953613281e-01</leafValues></_>
        <_>
          <internalNodes>
            0 -1 57 -2.8274647891521454e-02</internalNodes>
          <leafValues>
            3.9309519529342651e-01 -8.8660085201263428e-01</leafValues></_>
        <_>
          <internalNodes>
            0 -1 23 -7.1482844650745392e-03</internalNodes>
          <leafValues>
            7.4570566415786743e-01 -6.1522358655929565e-01</leafValues></_>
        <_>
          <internalNodes>
            0 -1 63 -1.8654910847544670e-02</internalNodes>
          <leafValues>
            5.5783927440643311e-01 -7.4911564588546753e-01</leafValues></_></weakClassifiers></_>
    <!-- stage 2 -->
    <_>
      <maxWeakCount>3</maxWeakCount>
      <stageThreshold>-1.4583904743194580e+00</stageThreshold>
      <weakClassifiers>
        <_>
          <internalNodes>
            0 -1 53 -2.1078721620142460e-03</internalNodes>
          <leafValues>
            4.8553055524826050e-01 -9.0988880395889282e-01</leafValues></_>
        <_>
          <internalNodes>
            0 -1 8 -2.9401792213320732e-02</internalNodes>
          <leafValues>
            3.8845926523208618e-01 -8.9125633239746094e-01</leafValues></_>
        <_>
          <internalNodes>
            0 -1 61 -4.5319385826587677e-03</internalNodes>
          <leafValues>
            3.4275478124618530e-01 -8.8199198246002197e-01</leafValues></_></weakClassifiers></_>
    <!-- stage 3 -->
    <_>
      <maxWeakCount>4</maxWeakCount>
      <stageThreshold>-2.0027408599853516e+00</stageThreshold>
      <weakClassifiers>
        <_>
          <internalNodes>
            0 -1 38 -6.0543543659150600e-03</internalNodes>
          <leafValues>
            3.2957747578620911e-01 -9.1351354122161865e-01</leafValues></_>
        <_>
          <internalNodes>
            0 -1 27 -4.8803947865962982e-02</internalNodes>
          <leafValues>
            4.1494929790496826e-01 -8.2183140516281128e-01</leafValues></_>
        <_>
          <internalNodes>
            0 -1 7 -6.8833082914352417e-03</internalNodes>
          <leafValues>
            5.7107079029083252e-01 -7.0233380794525146e-01</leafValues></_>
        <_>
          <internalNodes>
            0 -1 64 -1.6614310443401337e-02</internalNodes>
          <leafValues>
            4.7490450739860535e-01 -8.3846676349639893e-01</leafValues></_></weakClassifiers></_>
    <!-- stage 4 -->
    <_>
      <maxWeakCount>3</maxWeakCount>
      <stageThreshold>-1.3795475959777832e+00</stageThreshold>
      <weakClassifiers>
        <_>
          <internalNodes>
            0 -1 37 -1.0543631389737129e-02</internalNodes>
          <leafValues>
            4.3333333730697632e-01 -8.9186048507690430e-01</leafValues></_>
        <_>
          <internalNodes>
            0 -1 20 -5.5372096598148346e-02</internalNodes>
          <leafValues>
            4.2867827415466309e-01 -8.2005310058593750e-01</leafValues></_>
        <_>
          <internalNodes>
            0 -1 11 -1.7098035663366318e-02</internalNodes>
          <leafValues>
            3.3236593008041382e-01 -8.6206984519958496e-01</leafValues></_></weakClassifiers></_>
    <!-- stage 5 -->
    <_>
      <maxWeakCount>6</maxWeakCount>
      <stageThreshold>-1.4971760511398315e+00</stageThreshold>
      <weakClassifiers>
        <_>
          <internalNodes>
            0 -1 60 3.2885312102735043e-03</internalNodes>
          <leafValues>
            -8.5431957244873047e-01 4.3775099515914917e-01</leafValues></_>
        <_>
          <internalNodes>
            0 -1 49 -6.3025347888469696e-02</internalNodes>
          <leafValues>
            3.7889137864112854e-01 -7.9764729738235474e-01</leafValues></_>
        <_>
          <internalNodes>
            0 -1 0 -9.8554603755474091e-02</internalNodes>
          <leafValues>
            7.4513590335845947e-01 -5.2038216590881348e-01</leafValues></_>
        <_>
          <internalNodes>
            0 -1 52 -2.2233014460653067e-03</internalNodes>
          <leafValues>
            7.7413165569305420e-01 -4.7561419010162354e-01</leafValues></_>
        <_>
          <internalNodes>
            0 -1 54 -3.2666651532053947e-03</internalNodes>
          <leafValues>
            4.2977634072303772e-01 -8.7601178884506226e-01</leafValues></_>
        <_>
          <internalNodes>
            0 -1 3 -1.1002525687217712e-02</internalNodes>
          <leafValues>
            8.7552267313003540e-01 -3.9948546886444092e-01</leafValues></_></weakClassifiers></_>
    <!-- stage 6 -->
    <_>
      <maxWeakCount>5</maxWeakCount>
      <stageThreshold>-1.4877089262008667e+00</stageThreshold>
      <weakClassifiers>
        <_>
          <internalNodes>
            0 -1 23 -1.5241718851029873e-02</internalNodes>
          <leafValues>
            4.7656250000000000e-01 -8.6507934331893921e-01</leafValues></_>
        <_>
          <internalNodes>
            0 -1 62 5.3140997886657715e-02</internalNodes>
          <leafValues>
            -6.5767580270767212e-01 6.2377256155014038e-01</leafValues></_>
        <_>
          <internalNodes>
            0 -1 65 -4.0292032063007355e-03</internalNodes>
          <leafValues>
            6.2958425283432007e-01 -5.4853039979934692e-01</leafValues></_>
        <_>
          <internalNodes>
            0 -1 1 -5.0763860344886780e-03</internalNodes>
          <leafValues>
            3.5061302781105042e-01 -9.0392357110977173e-01</leafValues></_>
        <_>
          <internalNodes>
            0 -1 4 -2.6676976631279103e-05</internalNodes>
          <leafValues>
            3.0938556790351868e-01 -8.4018075466156006e-01</leafValues></_></weakClassifiers></_>
    <!-- stage 7 -->
    <_>
      <maxWeakCount>4</maxWeakCount>
      <stageThreshold>-1.6760283708572388e+00</stageThreshold>
      <weakClassifiers>
        <_>
          <internalNodes>
            0 -1 13 2.9755032155662775e-03</internalNodes>
          <leafValues>
            -8.0697053670883179e-01 6.5161287784576416e-01</leafValues></_>
        <_>
          <internalNodes>
            0 -1 22 3.8590241223573685e-02</internalNodes>
          <leafValues>
            -9.4373428821563721e-01 1.7369599640369415e-01</leafValues></_>
        <_>
          <internalNodes>
            0 -1 21 1.9720604643225670e-02</internalNodes>
          <leafValues>
            -5.8170044422149658e-01 5.2520585060119629e-01</leafValues></_>
        <_>
          <internalNodes>
            0 -1 44 1.6812446713447571e-01</internalNodes>
          <leafValues>
            -4.6105337142944336e-01 7.4309051036834717e-01</leafValues></_></weakClassifiers></_>
    <!-- stage 8 -->
    <_>
      <maxWeakCount>5</maxWeakCount>
      <stageThreshold>-1.3965787887573242e+00</stageThreshold>
      <weakClassifiers>
        <_>
          <internalNodes>
            0 -1 35 -2.0082049071788788e-02</internalNodes>
          <leafValues>
            3.2075470685958862e-01 -8.4843307733535767e-01</leafValues></_>
        <_>
          <internalNodes>
            0 -1 66 -9.9029131233692169e-03</internalNodes>
          <leafValues>
            5.9552836418151855e-01 -5.9688913822174072e-01</leafValues></_>
        <_>
          <internalNodes>
            0 -1 29 -1.4849295839667320e-02</internalNodes>
          <leafValues>
            4.6352240443229675e-01 -6.7294609546661377e-01</leafValues></_>
        <_>
          <internalNodes>
            0 -1 56 -2.6345835067331791e-03</internalNodes>
          <leafValues>
            4.4695770740509033e-01 -7.5226575136184692e-01</leafValues></_>
        <_>
          <internalNodes>
            0 -1 47 -5.7635240955278277e-04</internalNodes>
          <leafValues>
            3.3748674392700195e-01 -8.1061333417892456e-01</leafValues></_></weakClassifiers></_>
    <!-- stage 9 -->
    <_>
      <maxWeakCount>5</maxWeakCount>
      <stageThreshold>-1.6345869302749634e+00</stageThreshold>
      <weakClassifiers>
        <_>
          <internalNodes>
            0 -1 30 2.4732965975999832e-02</internalNodes>
          <leafValues>
            -8.0331373214721680e-01 6.6442954540252686e-01</leafValues></_>
        <_>
          <internalNodes>
            0 -1 46 1.4088602736592293e-02</internalNodes>
          <leafValues>
            -6.2490034103393555e-01 5.3367841243743896e-01</leafValues></_>
        <_>
          <internalNodes>
            0 -1 10 -1.0395646095275879e-02</internalNodes>
          <leafValues>
            3.1570628285408020e-01 -8.6782830953598022e-01</leafValues></_>
        <_>
          <internalNodes>
            0 -1 5 -1.4434073865413666e-01</internalNodes>
          <leafValues>
            3.9721444249153137e-01 -7.3313504457473755e-01</leafValues></_>
        <_>
          <internalNodes>
            0 -1 18 -7.1294875815510750e-03</internalNodes>
          <leafValues>
            -1. 2.6424098014831543e-01</leafValues></_></weakClassifiers></_>
    <!-- stage 10 -->
    <_>
      <maxWeakCount>4</maxWeakCount>
      <stageThreshold>-1.2038458585739136e+00</stageThreshold>
      <weakClassifiers>
        <_>
          <internalNodes>
            0 -1 16 3.0766341369599104e-03</internalNodes>
          <leafValues>
            -8.4827584028244019e-01 2.5714287161827087e-01</leafValues></_>
        <_>
          <internalNodes>
            0 -1 36 -4.1918493807315826e-03</internalNodes>
          <leafValues>
            4.3901166319847107e-01 -6.9301831722259521e-01</leafValues></_>
        <_>
          <internalNodes>
            0 -1 24 3.5859327908838168e-05</internalNodes>
          <leafValues>
            -9.6246999502182007e-01 2.4349352717399597e-01</leafValues></_>
        <_>
          <internalNodes>
            0 -1 48 1.7346485401503742e-04</internalNodes>
          <leafValues>
            1.9449955224990845e-01 -1.</leafValues></_></weakClassifiers></_>
    <!-- stage 11 -->
    <_>
      <maxWeakCount>4</maxWeakCount>
      <stageThreshold>-1.2345144748687744e+00</stageThreshold>
      <weakClassifiers>
        <_>
          <internalNodes>
            0 -1 31 2.4109654128551483e-02</internalNodes>
          <leafValues>
            -7.9872202873229980e-01 6.7605632543563843e-01</leafValues></_>
        <_>
          <internalNodes>
            0 -1 15 -1.1629860103130341e-01</internalNodes>
          <leafValues>
            1.6710893809795380e-01 -8.3381503820419312e-01</leafValues></_>
        <_>
          <internalNodes>
            0 -1 42 -6.2648542225360870e-03</internalNodes>
          <leafValues>
            -9.1221231222152710e-01 2.2572959959506989e-01</leafValues></_>
        <_>
          <internalNodes>
            0 -1 33 1.8758501857519150e-02</internalNodes>
          <leafValues>
            -7.2456920146942139e-01 3.0931100249290466e-01</leafValues></_></weakClassifiers></_>
    <!-- stage 12 -->
    <_>
      <maxWeakCount>6</maxWeakCount>
      <stageThreshold>-1.7096279859542847e+00</stageThreshold>
      <weakClassifiers>
        <_>
          <internalNodes>
            0 -1 6 4.0815342217683792e-03</internalNodes>
          <leafValues>
            -8.3089065551757813e-01 2.8455284237861633e-01</leafValues></_>
        <_>
          <internalNodes>
            0 -1 25 -1.7718260642141104e-03</internalNodes>
          <leafValues>
            3.2771420478820801e-01 -7.0912694931030273e-01</leafValues></_>
        <_>
          <internalNodes>
            0 -1 43 -2.0209886133670807e-03</internalNodes>
          <leafValues>
            2.7456402778625488e-01 -8.5775035619735718e-01</leafValues></_>
        <_>
          <internalNodes>
            0 -1 55 -8.7749143131077290e-04</internalNodes>
          <leafValues>
            -9.6668678522109985e-01 1.8449303507804871e-01</leafValues></_>
        <_>
          <internalNodes>
            0 -1 45 7.7759623527526855e-03</internalNodes>
          <leafValues>
            -7.7797466516494751e-01 2.4885639548301697e-01</leafValues></_>
        <_>
          <internalNodes>
            0 -1 50 -2.2558637429028749e-03</internalNodes>
          <leafValues>
            2.6364585757255554e-01 -8.5798752307891846e-01</leafValues></_></weakClassifiers></_>
    <!-- stage 13 -->
    <_>
      <maxWeakCount>5</maxWeakCount>
      <stageThreshold>-1.6851564645767212e+00</stageThreshold>
      <weakClassifiers>
        <_>
          <internalNodes>
            0 -1 58 -1.9587080460041761e-03</internalNodes>
          <leafValues>
            2.5951558351516724e-01 -8.5441941022872925e-01</leafValues></_>
        <_>
          <internalNodes>
            0 -1 2 -1.2714441865682602e-02</internalNodes>
          <leafValues>
            5.4236984252929688e-01 -5.4674941301345825e-01</leafValues></_>
        <_>
          <internalNodes>
            0 -1 17 -3.8760271854698658e-03</internalNodes>
          <leafValues>
            3.3570793271064758e-01 -7.5176805257797241e-01</leafValues></_>
        <_>
          <internalNodes>
            0 -1 39 8.7707331404089928e-03</internalNodes>
          <leafValues>
            -9.4546884298324585e-01 2.2904478013515472e-01</leafValues></_>
        <_>
          <internalNodes>
            0 -1 28 -2.3247208446264267e-03</internalNodes>
          <leafValues>
            -8.4874033927917480e-01 2.5632292032241821e-01</leafValues></_></weakClassifiers></_>
    <!-- stage 14 -->
    <_>
      <maxWeakCount>6</maxWeakCount>
      <stageThreshold>-2.0607893466949463e+00</stageThreshold>
      <weakClassifiers>
        <_>
          <internalNodes>
            0 -1 59 1.7646649852395058e-02</internalNodes>
          <leafValues>
            -8.0890333652496338e-01 4.8314607143402100e-01</leafValues></_>
        <_>
          <internalNodes>
            0 -1 32 -4.3882699683308601e-03</internalNodes>
          <leafValues>
            3.5426491498947144e-01 -7.0251482725143433e-01</leafValues></_>
        <_>
          <internalNodes>
            0 -1 41 -9.3825552612543106e-03</internalNodes>
          <leafValues>
            7.7286255359649658e-01 -4.1514801979064941e-01</leafValues></_>
        <_>
          <internalNodes>
            0 -1 26 -9.5383943989872932e-03</internalNodes>
          <leafValues>
            4.0380865335464478e-01 -7.3641490936279297e-01</leafValues></_>
        <_>
          <internalNodes>
            0 -1 19 -4.6661635860800743e-03</internalNodes>
          <leafValues>
            -8.2150012254714966e-01 3.0828064680099487e-01</leafValues></_>
        <_>
          <internalNodes>
            0 -1 9 -1.7700062599033117e-03</internalNodes>
          <leafValues>
            2.8346824645996094e-01 -9.2451471090316772e-01</leafValues></_></weakClassifiers></_></stages>
  <features>
    <_>
      <rects>
        <_>
          0 2 24 3 -1.</_>
        <_>
          8 2 8 3 3.</_></rects>
      <tilted>0</tilted></_>
    <_>
      <rects>
        <_>
          1 5 10 3 -1.</_>
        <_>
          6 5 5 3 2.</_></rects>
      <tilted>0</tilted></_>
    <_>
      <rects>
        <_>
          1 6 2 10 -1.</_>
        <_>
          2 6 1 10 2.</_></rects>
      <tilted>0</tilted></_>
    <_>
      <rects>
        <_>
          1 7 3 6 -1.</_>
        <_>
          2 7 1 6 3.</_></rects>
      <tilted>0</tilted></_>
    <_>
      <rects>
        <_>
          2 9 20 4 -1.</_>
        <_>
          2 11 20 2 2.</_></rects>
      <tilted>0</tilted></_>
    <_>
      <rects>
        <_>
          3 0 15 12 -1.</_>
        <_>
          3 4 15 4 3.</_></rects>
      <tilted>0</tilted></_>
    <_>
      <rects>
        <_>
          3 10 4 2 -1.</_>
        <_>
          3 10 2 1 2.</_>
        <_>
          5 11 2 1 2.</_></rects>
      <tilted>0</tilted></_>
    <_>
      <rects>
        <_>
          3 11 4 8 -1.</_>
        <_>
          3 11 2 4 2.</_>
        <_>
          5 15 2 4 2.</_></rects>
      <tilted>0</tilted></_>
    <_>
      <rects>
        <_>
          4 2 6 20 -1.</_>
        <_>
          7 2 3 20 2.</_></rects>
      <tilted>0</tilted></_>
    <_>
      <rects>
        <_>
          4 3 12 8 -1.</_>
        <_>
          10 3 6 8 2.</_></rects>
      <tilted>0</tilted></_>
    <_>
      <rects>
        <_>
          4 11 6 10 -1.</_>
        <_>
          7 11 3 10 2.</_></rects>
      <tilted>0</tilted></_>
    <_>
      <rects>
        <_>
          4 14 12 7 -1.</_>
        <_>
          8 14 4 7 3.</_></rects>
      <tilted>0</tilted></_>
    <_>
      <rects>
        <_>
          5 0 13 12 -1.</_>
        <_>
          5 4 13 4 3.</_></rects>
      <tilted>0</tilted></_>
    <_>
      <rects>
        <_>
          5 11 2 2 -1.</_>
        <_>
          5 11 1 1 2.</_>
        <_>
          6 12 1 1 2.</_></rects>
      <tilted>0</tilted></_>
    <_>
      <rects>
        <_>
          5 12 14 12 -1.</_>
        <_>
          5 16 14 4 3.</_></rects>
      <tilted>0</tilted></_>
    <_>
      <rects>
        <_>
          5 12 15 12 -1.</_>
        <_>
          5 16 15 4 3.</_></rects>
      <tilted>0</tilted></_>
    <_>
      <rects>
        <_>
          5 13 1 3 -1.</_>
        <_>
          5 14 1 1 3.</_></rects>
      <tilted>0</tilted></_>
    <_>
      <rects>
        <_>
          5 18 10 3 -1.</_>
        <_>
          10 18 5 3 2.</_></rects>
      <tilted>0</tilted></_>
    <_>
      <rects>
        <_>
          6 6 9 4 -1.</_>
        <_>
          9 6 3 4 3.</_></rects>
      <tilted>0</tilted></_>
    <_>
      <rects>
        <_>
          6 9 4 6 -1.</_>
        <_>
          6 12 4 3 2.</_></rects>
      <tilted>0</tilted></_>
    <_>
      <rects>
        <_>
          7 0 9 9 -1.</_>
        <_>
          7 3 9 3 3.</_></rects>
      <tilted>0</tilted></_>
    <_>
      <rects>
        <_>
          7 7 6 9 -1.</_>
        <_>
          9 7 2 9 3.</_></rects>
      <tilted>0</tilted></_>
    <_>
      <rects>
        <_>
          7 7 12 12 -1.</_>
        <_>
          7 11 12 4 3.</_></rects>
      <tilted>0</tilted></_>
    <_>
      <rects>
        <_>
          7 9 3 6 -1.</_>
        <_>
          8 9 1 6 3.</_></rects>
      <tilted>0</tilted></_>
    <_>
      <rects>
        <_>
          7 9 14 11 -1.</_>
        <_>
          14 9 7 11 2.</_></rects>
      <tilted>0</tilted></_>
    <_>
      <rects>
        <_>
          7 12 3 1 -1.</_>
        <_>
          8 12 1 1 3.</_></rects>
      <tilted>0</tilted></_>
    <_>
      <rects>
        <_>
          7 17 11 6 -1.</_>
        <_>
          7 19 11 2 3.</_></rects>
      <tilted>0</tilted></_>
    <_>
      <rects>
        <_>
          8 0 8 9 -1.</_>
        <_>
          8 3 8 3 3.</_></rects>
      <tilted>0</tilted></_>
    <_>
      <rects>
        <_>
          8 5 9 2 -1.</_>
        <_>
          11 5 3 2 3.</_></rects>
      <tilted>0</tilted></_>
    <_>
      <rects>
        <_>
          8 6 16 4 -1.</_>
        <_>
          8 6 8 2 2.</_>
        <_>
          16 8 8 2 2.</_></rects>
      <tilted>0</tilted></_>
    <_>
      <rects>
        <_>
          8 9 3 6 -1.</_>
        <_>
          9 9 1 6 3.</_></rects>
      <tilted>0</tilted></_>
    <_>
      <rects>
        <_>
          8 21 8 3 -1.</_>
        <_>
          8 22 8 1 3.</_></rects>
      <tilted>0</tilted></_>
    <_>
      <rects>
        <_>
          9 8 6 2 -1.</_>
        <_>
          11 8 2 2 3.</_></rects>
      <tilted>0</tilted></_>
    <_>
      <rects>
        <_>
          10 0 14 6 -1.</_>
        <_>
          10 0 7 3 2.</_>
        <_>
          17 3 7 3 2.</_></rects>
      <tilted>0</tilted></_>
    <_>
      <rects>
        <_>
          10 8 3 7 -1.</_>
        <_>
          11 8 1 7 3.</_></rects>
      <tilted>0</tilted></_>
    <_>
      <rects>
        <_>
          10 9 3 6 -1.</_>
        <_>
          11 9 1 6 3.</_></rects>
      <tilted>0</tilted></_>
    <_>
      <rects>
        <_>
          10 10 3 2 -1.</_>
        <_>
          11 10 1 2 3.</_></rects>
      <tilted>0</tilted></_>
    <_>
      <rects>
        <_>
          10 10 3 4 -1.</_>
        <_>
          11 10 1 4 3.</_></rects>
      <tilted>0</tilted></_>
    <_>
      <rects>
        <_>
          10 11 3 3 -1.</_>
        <_>
          11 11 1 3 3.</_></rects>
      <tilted>0</tilted></_>
    <_>
      <rects>
        <_>
          11 5 3 12 -1.</_>
        <_>
          11 9 3 4 3.</_></rects>
      <tilted>0</tilted></_>
    <_>
      <rects>
        <_>
          11 6 3 10 -1.</_>
        <_>
          12 6 1 10 3.</_></rects>
      <tilted>0</tilted></_>
    <_>
      <rects>
        <_>
          11 10 3 5 -1.</_>
        <_>
          12 10 1 5 3.</_></rects>
      <tilted>0</tilted></_>
    <_>
      <rects>
        <_>
          11 10 8 4 -1.</_>
        <_>
          11 12 8 2 2.</_></rects>
      <tilted>0</tilted></_>
    <_>
      <rects>
        <_>
          11 17 9 5 -1.</_>
        <_>
          14 17 3 5 3.</_></rects>
      <tilted>0</tilted></_>
    <_>
      <rects>
        <_>
          12 2 12 21 -1.</_>
        <_>
          18 2 6 21 2.</_></rects>
      <tilted>0</tilted></_>
    <_>
      <rects>
        <_>
          12 7 6 6 -1.</_>
        <_>
          12 9 6 2 3.</_></rects>
      <tilted>0</tilted></_>
    <_>
      <rects>
        <_>
          12 8 3 7 -1.</_>
        <_>
          13 8 1 7 3.</_></rects>
      <tilted>0</tilted></_>
    <_>
      <rects>
        <_>
          12 9 4 6 -1.</_>
        <_>
          12 11 4 2 3.</_></rects>
      <tilted>0</tilted></_>
    <_>
      <rects>
        <_>
          12 11 10 4 -1.</_>
        <_>
          12 13 10 2 2.</_></rects>
      <tilted>0</tilted></_>
    <_>
      <rects>
        <_>
          13 0 5 12 -1.</_>
        <_>
          13 4 5 4 3.</_></rects>
      <tilted>0</tilted></_>
    <_>
      <rects>
        <_>
          13 8 10 8 -1.</_>
        <_>
          13 8 5 4 2.</_>
        <_>
          18 12 5 4 2.</_></rects>
      <tilted>0</tilted></_>
    <_>
      <rects>
        <_>
          13 10 3 4 -1.</_>
        <_>
          14 10 1 4 3.</_></rects>
      <tilted>0</tilted></_>
    <_>
      <rects>
        <_>
          13 11 3 1 -1.</_>
        <_>
          14 11 1 1 3.</_></rects>
      <tilted>0</tilted></_>
    <_>
      <rects>
        <_>
          13 12 3 1 -1.</_>
        <_>
          14 12 1 1 3.</_></rects>
      <tilted>0</tilted></_>
    <_>
      <rects>
        <_>
          13 15 2 9 -1.</_>
        <_>
          13 18 2 3 3.</_></rects>
      <tilted>0</tilted></_>
    <_>
      <rects>
        <_>
          13 17 3 2 -1.</_>
        <_>
          13 18 3 1 2.</_></rects>
      <tilted>0</tilted></_>
    <_>
      <rects>
        <_>
          14 2 4 6 -1.</_>
        <_>
          14 2 2 3 2.</_>
        <_>
          16 5 2 3 2.</_></rects>
      <tilted>0</tilted></_>
    <_>
      <rects>
        <_>
          14 3 8 14 -1.</_>
        <_>
          14 3 4 7 2.</_>
        <_>
          18 10 4 7 2.</_></rects>
      <tilted>0</tilted></_>
    <_>
      <rects>
        <_>
          14 9 1 2 -1.</_>
        <_>
          14 10 1 1 2.</_></rects>
      <tilted>0</tilted></_>
    <_>
      <rects>
        <_>
          14 10 3 8 -1.</_>
        <_>
          15 10 1 8 3.</_></rects>
      <tilted>0</tilted></_>
    <_>
      <rects>
        <_>
          14 14 1 3 -1.</_>
        <_>
          14 15 1 1 3.</_></rects>
      <tilted>0</tilted></_>
    <_>
      <rects>
        <_>
          14 14 3 4 -1.</_>
        <_>
          14 16 3 2 2.</_></rects>
      <tilted>0</tilted></_>
    <_>
      <rects>
        <_>
          15 3 8 6 -1.</_>
        <_>
          19 3 4 6 2.</_></rects>
      <tilted>0</tilted></_>
    <_>
      <rects>
        <_>
          16 3 6 9 -1.</_>
        <_>
          16 6 6 3 3.</_></rects>
      <tilted>0</tilted></_>
    <_>
      <rects>
        <_>
          17 10 4 12 -1.</_>
        <_>
          17 14 4 4 3.</_></rects>
      <tilted>0</tilted></_>
    <_>
      <rects>
        <_>
          17 14 6 1 -1.</_>
        <_>
          19 14 2 1 3.</_></rects>
      <tilted>0</tilted></_>
    <_>
      <rects>
        <_>
          20 9 3 8 -1.</_>
        <_>
          21 9 1 8 3.</_></rects>
      <tilted>0</tilted></_></features></cascade>
</opencv_storage>
