<?xml version="1.0"?>
<opencv_storage>
<stage8>
  <maxWeakCount>5</maxWeakCount>
  <stageThreshold>-1.3965787887573242e+00</stageThreshold>
  <weakClassifiers>
    <_>
      <internalNodes>
        0 -1 111453 -2.0082049071788788e-02</internalNodes>
      <leafValues>
        3.2075470685958862e-01 -8.4843307733535767e-01</leafValues></_>
    <_>
      <internalNodes>
        0 -1 158930 -9.9029131233692169e-03</internalNodes>
      <leafValues>
        5.9552836418151855e-01 -5.9688913822174072e-01</leafValues></_>
    <_>
      <internalNodes>
        0 -1 94060 -1.4849295839667320e-02</internalNodes>
      <leafValues>
        4.6352240443229675e-01 -6.7294609546661377e-01</leafValues></_>
    <_>
      <internalNodes>
        0 -1 134714 -2.6345835067331791e-03</internalNodes>
      <leafValues>
        4.4695770740509033e-01 -7.5226575136184692e-01</leafValues></_>
    <_>
      <internalNodes>
        0 -1 125567 -5.7635240955278277e-04</internalNodes>
      <leafValues>
        3.3748674392700195e-01 -8.1061333417892456e-01</leafValues></_></weakClassifiers></stage8>
</opencv_storage>
