<?xml version="1.0"?>
<opencv_storage>
<cascade type_id="opencv-haar-classifier"><size>
    24 24</size>
  <stages>
    <_>
      <trees>
        <_>
          <_>
            <feature>
              <rects>
                <_>
                  3 4 18 2 -1.</_>
                <_>
                  9 4 6 2 3.</_></rects>
              <tilted>0</tilted></feature>
            <threshold>3.7941083312034607e-02</threshold>
            <left_val>-9.6307692307692305e-01</left_val>
            <right_val>7.9474940334128719e-01</right_val></_></_>
        <_>
          <_>
            <feature>
              <rects>
                <_>
                  1 6 6 6 -1.</_>
                <_>
                  4 6 3 6 2.</_></rects>
              <tilted>0</tilted></feature>
            <threshold>3.0047358945012093e-02</threshold>
            <left_val>-7.8818136462626676e-01</left_val>
            <right_val>8.0117117132230453e-01</right_val></_></_>
        <_>
          <_>
            <feature>
              <rects>
                <_>
                  8 14 7 10 -1.</_>
                <_>
                  8 19 7 5 2.</_></rects>
              <tilted>0</tilted></feature>
            <threshold>-4.7911345958709717e-02</threshold>
            <left_val>5.3857416056515928e-01</left_val>
            <right_val>-9.0880922727301616e-01</right_val></_></_></trees>
      <stage_threshold>-1.2126841545104980e+00</stage_threshold>
      <parent>-1</parent>
      <next>-1</next></_>
    <_>
      <trees>
        <_>
          <_>
            <feature>
              <rects>
                <_>
                  10 1 5 9 -1.</_>
                <_>
                  10 4 5 3 3.</_></rects>
              <tilted>0</tilted></feature>
            <threshold>3.8418054580688477e-02</threshold>
            <left_val>-9.1493775933609933e-01</left_val>
            <right_val>6.4186046511627626e-01</right_val></_></_>
        <_>
          <_>
            <feature>
              <rects>
                <_>
                  9 3 6 16 -1.</_>
                <_>
                  11 3 2 16 3.</_></rects>
              <tilted>0</tilted></feature>
            <threshold>3.6612242460250854e-02</threshold>
            <left_val>-7.4462755689232440e-01</left_val>
            <right_val>7.3217989758827262e-01</right_val></_></_>
        <_>
          <_>
            <feature>
              <rects>
                <_>
                  7 11 9 8 -1.</_>
                <_>
                  7 15 9 4 2.</_></rects>
              <tilted>0</tilted></feature>
            <threshold>8.0194640904664993e-03</threshold>
            <left_val>-8.2603200122004383e-01</left_val>
            <right_val>6.1799378245191383e-01</right_val></_></_></trees>
      <stage_threshold>-1.0415714979171753e+00</stage_threshold>
      <parent>0</parent>
      <next>-1</next></_>
    <_>
      <trees>
        <_>
          <_>
            <feature>
              <rects>
                <_>
                  9 2 1 6 -1.</_>
                <_>
                  9 4 1 2 3.</_></rects>
              <tilted>0</tilted></feature>
            <threshold>7.9110404476523399e-03</threshold>
            <left_val>-8.1040892193308500e-01</left_val>
            <right_val>8.3647798742138191e-01</right_val></_></_>
        <_>
          <_>
            <feature>
              <rects>
                <_>
                  5 3 6 10 -1.</_>
                <_>
                  5 3 3 5 2.</_>
                <_>
                  8 8 3 5 2.</_></rects>
              <tilted>0</tilted></feature>
            <threshold>-1.7584741115570068e-02</threshold>
            <left_val>5.8843915198683650e-01</left_val>
            <right_val>-8.8099026534177927e-01</right_val></_></_>
        <_>
          <_>
            <feature>
              <rects>
                <_>
                  17 6 6 11 -1.</_>
                <_>
                  20 6 3 11 2.</_></rects>
              <tilted>0</tilted></feature>
            <threshold>-4.0893126279115677e-02</threshold>
            <left_val>7.0844606461844173e-01</left_val>
            <right_val>-6.7334234211184885e-01</right_val></_></_></trees>
      <stage_threshold>-9.8295313119888306e-01</stage_threshold>
      <parent>1</parent>
      <next>-1</next></_>
    <_>
      <trees>
        <_>
          <_>
            <feature>
              <rects>
                <_>
                  5 2 12 4 -1.</_>
                <_>
                  5 4 12 2 2.</_></rects>
              <tilted>0</tilted></feature>
            <threshold>3.6602616310119629e-02</threshold>
            <left_val>-8.5957873620862535e-01</left_val>
            <right_val>6.3224181360201204e-01</right_val></_></_>
        <_>
          <_>
            <feature>
              <rects>
                <_>
                  8 14 9 3 -1.</_>
                <_>
                  11 14 3 3 3.</_></rects>
              <tilted>0</tilted></feature>
            <threshold>1.5896122902631760e-02</threshold>
            <left_val>-8.2544301866283765e-01</left_val>
            <right_val>6.8338703889316255e-01</right_val></_></_>
        <_>
          <_>
            <feature>
              <rects>
                <_>
                  7 12 4 3 -1.</_>
                <_>
                  7 13 4 1 3.</_></rects>
              <tilted>0</tilted></feature>
            <threshold>1.0255310917273164e-03</threshold>
            <left_val>-7.1081500494065997e-01</left_val>
            <right_val>5.3074872968829356e-01</right_val></_></_>
        <_>
          <_>
            <feature>
              <rects>
                <_>
                  8 5 12 4 -1.</_>
                <_>
                  8 5 6 2 2.</_>
                <_>
                  14 7 6 2 2.</_></rects>
              <tilted>0</tilted></feature>
            <threshold>3.7374575622379780e-03</threshold>
            <left_val>-8.3921142198918208e-01</left_val>
            <right_val>4.6918976440199672e-01</right_val></_></_>
        <_>
          <_>
            <feature>
              <rects>
                <_>
                  7 12 6 8 -1.</_>
                <_>
                  10 12 3 8 2.</_></rects>
              <tilted>0</tilted></feature>
            <threshold>1.1037232354283333e-02</threshold>
            <left_val>-9.4330254911553124e-01</left_val>
            <right_val>3.9387438050145129e-01</right_val></_></_></trees>
      <stage_threshold>-1.5996100902557373e+00</stage_threshold>
      <parent>2</parent>
      <next>-1</next></_>
    <_>
      <trees>
        <_>
          <_>
            <feature>
              <rects>
                <_>
                  6 1 12 9 -1.</_>
                <_>
                  6 4 12 3 3.</_></rects>
              <tilted>0</tilted></feature>
            <threshold>4.4723212718963623e-02</threshold>
            <left_val>-9.4495412844036675e-01</left_val>
            <right_val>4.1762452107279319e-01</right_val></_></_>
        <_>
          <_>
            <feature>
              <rects>
                <_>
                  1 10 9 2 -1.</_>
                <_>
                  4 10 3 2 3.</_></rects>
              <tilted>0</tilted></feature>
            <threshold>1.4376513659954071e-02</threshold>
            <left_val>-8.6192181948293500e-01</left_val>
            <right_val>3.9004318186351522e-01</right_val></_></_>
        <_>
          <_>
            <feature>
              <rects>
                <_>
                  8 8 4 3 -1.</_>
                <_>
                  8 9 4 1 3.</_></rects>
              <tilted>0</tilted></feature>
            <threshold>1.3050052803009748e-03</threshold>
            <left_val>-6.8967324091710980e-01</left_val>
            <right_val>6.2525949425325056e-01</right_val></_></_></trees>
      <stage_threshold>-1.2445842027664185e+00</stage_threshold>
      <parent>3</parent>
      <next>-1</next></_>
    <_>
      <trees>
        <_>
          <_>
            <feature>
              <rects>
                <_>
                  11 4 6 20 -1.</_>
                <_>
                  11 14 6 10 2.</_></rects>
              <tilted>0</tilted></feature>
            <threshold>-4.4723488390445709e-02</threshold>
            <left_val>3.5877862595419430e-01</left_val>
            <right_val>-9.1264367816091918e-01</right_val></_></_>
        <_>
          <_>
            <feature>
              <rects>
                <_>
                  10 13 1 9 -1.</_>
                <_>
                  10 16 1 3 3.</_></rects>
              <tilted>0</tilted></feature>
            <threshold>1.1203091591596603e-02</threshold>
            <left_val>-7.3393563257700323e-01</left_val>
            <right_val>5.5698436061118028e-01</right_val></_></_>
        <_>
          <_>
            <feature>
              <rects>
                <_>
                  2 4 18 2 -1.</_>
                <_>
                  8 4 6 2 3.</_></rects>
              <tilted>0</tilted></feature>
            <threshold>5.0029382109642029e-02</threshold>
            <left_val>-7.1971451422451260e-01</left_val>
            <right_val>5.4225969905049143e-01</right_val></_></_></trees>
      <stage_threshold>-1.1043195724487305e+00</stage_threshold>
      <parent>4</parent>
      <next>-1</next></_>
    <_>
      <trees>
        <_>
          <_>
            <feature>
              <rects>
                <_>
                  13 2 2 6 -1.</_>
                <_>
                  13 4 2 2 3.</_></rects>
              <tilted>0</tilted></feature>
            <threshold>1.8234923481941223e-02</threshold>
            <left_val>-7.5140186915887763e-01</left_val>
            <right_val>6.1111111111110705e-01</right_val></_></_>
        <_>
          <_>
            <feature>
              <rects>
                <_>
                  14 10 7 6 -1.</_>
                <_>
                  14 13 7 3 2.</_></rects>
              <tilted>0</tilted></feature>
            <threshold>-6.0694674029946327e-03</threshold>
            <left_val>3.7848419654591270e-01</left_val>
            <right_val>-8.0526580313095808e-01</right_val></_></_>
        <_>
          <_>
            <feature>
              <rects>
                <_>
                  1 6 9 7 -1.</_>
                <_>
                  4 6 3 7 3.</_></rects>
              <tilted>0</tilted></feature>
            <threshold>2.9812717810273170e-02</threshold>
            <left_val>-6.8835958894144733e-01</left_val>
            <right_val>4.5794786979614349e-01</right_val></_></_>
        <_>
          <_>
            <feature>
              <rects>
                <_>
                  4 4 12 16 -1.</_>
                <_>
                  10 4 6 16 2.</_></rects>
              <tilted>0</tilted></feature>
            <threshold>6.8751469254493713e-02</threshold>
            <left_val>-9.0942323379304502e-01</left_val>
            <right_val>4.0207987064374107e-01</right_val></_></_>
        <_>
          <_>
            <feature>
              <rects>
                <_>
                  5 5 10 9 -1.</_>
                <_>
                  5 8 10 3 3.</_></rects>
              <tilted>0</tilted></feature>
            <threshold>5.9464154765009880e-03</threshold>
            <left_val>3.2371239557187170e-01</left_val>
            <right_val>-9.7140030055741045e-01</right_val></_></_></trees>
      <stage_threshold>-1.5192350149154663e+00</stage_threshold>
      <parent>5</parent>
      <next>-1</next></_>
    <_>
      <trees>
        <_>
          <_>
            <feature>
              <rects>
                <_>
                  7 8 4 3 -1.</_>
                <_>
                  7 9 4 1 3.</_></rects>
              <tilted>0</tilted></feature>
            <threshold>1.6957980114966631e-03</threshold>
            <left_val>-8.7961985216473026e-01</left_val>
            <right_val>5.0782997762863169e-01</right_val></_></_>
        <_>
          <_>
            <feature>
              <rects>
                <_>
                  9 7 11 2 -1.</_>
                <_>
                  9 8 11 1 2.</_></rects>
              <tilted>0</tilted></feature>
            <threshold>2.5017597363330424e-04</threshold>
            <left_val>-7.5837945363502501e-01</left_val>
            <right_val>4.8472495278420202e-01</right_val></_></_>
        <_>
          <_>
            <feature>
              <rects>
                <_>
                  1 10 6 2 -1.</_>
                <_>
                  4 10 3 2 2.</_></rects>
              <tilted>0</tilted></feature>
            <threshold>9.0165156871080399e-03</threshold>
            <left_val>-8.1027670548341324e-01</left_val>
            <right_val>3.8324079210855316e-01</right_val></_></_></trees>
      <stage_threshold>-1.2547584772109985e+00</stage_threshold>
      <parent>6</parent>
      <next>-1</next></_>
    <_>
      <trees>
        <_>
          <_>
            <feature>
              <rects>
                <_>
                  11 5 12 14 -1.</_>
                <_>
                  17 5 6 14 2.</_></rects>
              <tilted>0</tilted></feature>
            <threshold>-1.0255303978919983e-01</threshold>
            <left_val>4.7826086956521369e-01</left_val>
            <right_val>-9.1877058177826532e-01</right_val></_></_>
        <_>
          <_>
            <feature>
              <rects>
                <_>
                  13 17 6 2 -1.</_>
                <_>
                  13 18 6 1 2.</_></rects>
              <tilted>0</tilted></feature>
            <threshold>-3.6480645649135113e-03</threshold>
            <left_val>6.2859290095195641e-01</left_val>
            <right_val>-7.9219456269360577e-01</right_val></_></_>
        <_>
          <_>
            <feature>
              <rects>
                <_>
                  11 1 2 8 -1.</_>
                <_>
                  11 5 2 4 2.</_></rects>
              <tilted>0</tilted></feature>
            <threshold>3.4837755374610424e-03</threshold>
            <left_val>-8.5647351212952449e-01</left_val>
            <right_val>4.5832174111718677e-01</right_val></_></_></trees>
      <stage_threshold>-1.2526433467864990e+00</stage_threshold>
      <parent>7</parent>
      <next>-1</next></_>
    <_>
      <trees>
        <_>
          <_>
            <feature>
              <rects>
                <_>
                  13 4 2 6 -1.</_>
                <_>
                  13 6 2 2 3.</_></rects>
              <tilted>0</tilted></feature>
            <threshold>-3.0762513633817434e-03</threshold>
            <left_val>6.1458333333333004e-01</left_val>
            <right_val>-8.3366336633663318e-01</right_val></_></_>
        <_>
          <_>
            <feature>
              <rects>
                <_>
                  8 10 6 4 -1.</_>
                <_>
                  11 10 3 4 2.</_></rects>
              <tilted>0</tilted></feature>
            <threshold>2.8614522889256477e-03</threshold>
            <left_val>-9.4975549786502667e-01</left_val>
            <right_val>3.4399893900476503e-01</right_val></_></_>
        <_>
          <_>
            <feature>
              <rects>
                <_>
                  8 7 2 2 -1.</_>
                <_>
                  8 8 2 1 2.</_></rects>
              <tilted>0</tilted></feature>
            <threshold>1.4758235774934292e-03</threshold>
            <left_val>-4.8284011844011460e-01</left_val>
            <right_val>8.0782630580295400e-01</right_val></_></_>
        <_>
          <_>
            <feature>
              <rects>
                <_>
                  2 7 9 6 -1.</_>
                <_>
                  2 10 9 3 2.</_></rects>
              <tilted>0</tilted></feature>
            <threshold>8.2148648798465729e-03</threshold>
            <left_val>3.7439373516815705e-01</left_val>
            <right_val>-9.3307078008253286e-01</right_val></_></_></trees>
      <stage_threshold>-1.8918652534484863e+00</stage_threshold>
      <parent>8</parent>
      <next>-1</next></_>
    <_>
      <trees>
        <_>
          <_>
            <feature>
              <rects>
                <_>
                  13 4 6 3 -1.</_>
                <_>
                  13 5 6 1 3.</_></rects>
              <tilted>0</tilted></feature>
            <threshold>6.7050447687506676e-03</threshold>
            <left_val>-7.6245210727969270e-01</left_val>
            <right_val>5.4285714285713849e-01</right_val></_></_>
        <_>
          <_>
            <feature>
              <rects>
                <_>
                  5 9 12 5 -1.</_>
                <_>
                  11 9 6 5 2.</_></rects>
              <tilted>0</tilted></feature>
            <threshold>3.4824497997760773e-03</threshold>
            <left_val>-8.9936531852939938e-01</left_val>
            <right_val>4.0382653561639692e-01</right_val></_></_>
        <_>
          <_>
            <feature>
              <rects>
                <_>
                  6 3 15 17 -1.</_>
                <_>
                  11 3 5 17 3.</_></rects>
              <tilted>0</tilted></feature>
            <threshold>1.8998412787914276e-01</threshold>
            <left_val>-6.9631102156025571e-01</left_val>
            <right_val>4.5456280661508452e-01</right_val></_></_></trees>
      <stage_threshold>-1.2072546482086182e+00</stage_threshold>
      <parent>9</parent>
      <next>-1</next></_>
    <_>
      <trees>
        <_>
          <_>
            <feature>
              <rects>
                <_>
                  8 8 4 4 -1.</_>
                <_>
                  8 8 2 2 2.</_>
                <_>
                  10 10 2 2 2.</_></rects>
              <tilted>0</tilted></feature>
            <threshold>4.8454580828547478e-03</threshold>
            <left_val>-7.6840039254170678e-01</left_val>
            <right_val>4.7199999999999531e-01</right_val></_></_>
        <_>
          <_>
            <feature>
              <rects>
                <_>
                  1 5 9 12 -1.</_>
                <_>
                  4 5 3 12 3.</_></rects>
              <tilted>0</tilted></feature>
            <threshold>3.3830825239419937e-02</threshold>
            <left_val>-6.6414194399860649e-01</left_val>
            <right_val>4.7764202900104430e-01</right_val></_></_>
        <_>
          <_>
            <feature>
              <rects>
                <_>
                  8 9 11 6 -1.</_>
                <_>
                  8 12 11 3 2.</_></rects>
              <tilted>0</tilted></feature>
            <threshold>-6.0906792059540749e-03</threshold>
            <left_val>-7.9524466940211624e-01</left_val>
            <right_val>3.2280480160848174e-01</right_val></_></_>
        <_>
          <_>
            <feature>
              <rects>
                <_>
                  11 9 3 9 -1.</_>
                <_>
                  11 12 3 3 3.</_></rects>
              <tilted>0</tilted></feature>
            <threshold>-4.2158360593020916e-03</threshold>
            <left_val>3.0014280665501475e-01</left_val>
            <right_val>-7.9573296675298599e-01</right_val></_></_>
        <_>
          <_>
            <feature>
              <rects>
                <_>
                  8 10 9 4 -1.</_>
                <_>
                  11 10 3 4 3.</_></rects>
              <tilted>0</tilted></feature>
            <threshold>-1.8375038634985685e-03</threshold>
            <left_val>-9.3206472302680088e-01</left_val>
            <right_val>3.0960173393420531e-01</right_val></_></_></trees>
      <stage_threshold>-1.5958688259124756e+00</stage_threshold>
      <parent>10</parent>
      <next>-1</next></_>
    <_>
      <trees>
        <_>
          <_>
            <feature>
              <rects>
                <_>
                  6 12 3 2 -1.</_>
                <_>
                  7 12 1 2 3.</_></rects>
              <tilted>0</tilted></feature>
            <threshold>-7.8016640618443489e-03</threshold>
            <left_val>6.9458128078817549e-01</left_val>
            <right_val>-6.2720403022669913e-01</right_val></_></_>
        <_>
          <_>
            <feature>
              <rects>
                <_>
                  7 9 4 6 -1.</_>
                <_>
                  7 12 4 3 2.</_></rects>
              <tilted>0</tilted></feature>
            <threshold>2.9899489600211382e-03</threshold>
            <left_val>-7.5443042034891783e-01</left_val>
            <right_val>3.9631083006128259e-01</right_val></_></_>
        <_>
          <_>
            <feature>
              <rects>
                <_>
                  8 6 6 15 -1.</_>
                <_>
                  11 6 3 15 2.</_></rects>
              <tilted>0</tilted></feature>
            <threshold>3.0632009729743004e-02</threshold>
            <left_val>-6.2743197865363332e-01</left_val>
            <right_val>4.6803154206564984e-01</right_val></_></_>
        <_>
          <_>
            <feature>
              <rects>
                <_>
                  11 9 3 9 -1.</_>
                <_>
                  11 12 3 3 3.</_></rects>
              <tilted>0</tilted></feature>
            <threshold>-4.0581002831459045e-03</threshold>
            <left_val>2.9523302975470972e-01</left_val>
            <right_val>-8.2467156981470102e-01</right_val></_></_>
        <_>
          <_>
            <feature>
              <rects>
                <_>
                  3 10 14 4 -1.</_>
                <_>
                  10 10 7 4 2.</_></rects>
              <tilted>0</tilted></feature>
            <threshold>5.8898283168673515e-03</threshold>
            <left_val>-9.1971834947737985e-01</left_val>
            <right_val>2.5895401997255646e-01</right_val></_></_>
        <_>
          <_>
            <feature>
              <rects>
                <_>
                  10 4 3 9 -1.</_>
                <_>
                  10 7 3 3 3.</_></rects>
              <tilted>0</tilted></feature>
            <threshold>-1.3294427189975977e-03</threshold>
            <left_val>4.2296471131032537e-01</left_val>
            <right_val>-7.7047904387919941e-01</right_val></_></_></trees>
      <stage_threshold>-1.1578260660171509e+00</stage_threshold>
      <parent>11</parent>
      <next>-1</next></_>
    <_>
      <trees>
        <_>
          <_>
            <feature>
              <rects>
                <_>
                  8 10 6 3 -1.</_>
                <_>
                  11 10 3 3 2.</_></rects>
              <tilted>0</tilted></feature>
            <threshold>1.0101860389113426e-02</threshold>
            <left_val>-8.1780538302277361e-01</left_val>
            <right_val>4.2990654205607032e-01</right_val></_></_>
        <_>
          <_>
            <feature>
              <rects>
                <_>
                  4 5 16 8 -1.</_>
                <_>
                  4 5 8 4 2.</_>
                <_>
                  12 9 8 4 2.</_></rects>
              <tilted>0</tilted></feature>
            <threshold>-2.6003166567534208e-03</threshold>
            <left_val>-8.6763940071249768e-01</left_val>
            <right_val>2.7149057209745475e-01</right_val></_></_>
        <_>
          <_>
            <feature>
              <rects>
                <_>
                  13 12 4 12 -1.</_>
                <_>
                  13 16 4 4 3.</_></rects>
              <tilted>0</tilted></feature>
            <threshold>2.0567029714584351e-02</threshold>
            <left_val>-6.6531309874255506e-01</left_val>
            <right_val>4.0682995890347162e-01</right_val></_></_>
        <_>
          <_>
            <feature>
              <rects>
                <_>
                  5 7 12 6 -1.</_>
                <_>
                  11 7 6 6 2.</_></rects>
              <tilted>0</tilted></feature>
            <threshold>1.4755693264305592e-03</threshold>
            <left_val>-8.8170698979698803e-01</left_val>
            <right_val>3.0068572745897376e-01</right_val></_></_></trees>
      <stage_threshold>-1.0211918354034424e+00</stage_threshold>
      <parent>12</parent>
      <next>-1</next></_>
    <_>
      <trees>
        <_>
          <_>
            <feature>
              <rects>
                <_>
                  7 15 6 1 -1.</_>
                <_>
                  9 15 2 1 3.</_></rects>
              <tilted>0</tilted></feature>
            <threshold>-5.2741998806595802e-03</threshold>
            <left_val>4.6902654867256205e-01</left_val>
            <right_val>-7.2511848341232132e-01</right_val></_></_>
        <_>
          <_>
            <feature>
              <rects>
                <_>
                  4 5 12 14 -1.</_>
                <_>
                  10 5 6 14 2.</_></rects>
              <tilted>0</tilted></feature>
            <threshold>4.3553352355957031e-02</threshold>
            <left_val>-9.8168107394815740e-01</left_val>
            <right_val>2.1317170333260621e-01</right_val></_></_>
        <_>
          <_>
            <feature>
              <rects>
                <_>
                  9 16 11 3 -1.</_>
                <_>
                  9 17 11 1 3.</_></rects>
              <tilted>0</tilted></feature>
            <threshold>1.0940150357782841e-02</threshold>
            <left_val>-4.9303887983071915e-01</left_val>
            <right_val>5.2781589818278130e-01</right_val></_></_>
        <_>
          <_>
            <feature>
              <rects>
                <_>
                  10 7 3 6 -1.</_>
                <_>
                  10 10 3 3 2.</_></rects>
              <tilted>0</tilted></feature>
            <threshold>-6.4072143286466599e-03</threshold>
            <left_val>-8.3220719156839618e-01</left_val>
            <right_val>3.3340129374761163e-01</right_val></_></_>
        <_>
          <_>
            <feature>
              <rects>
                <_>
                  9 5 3 13 -1.</_>
                <_>
                  10 5 1 13 3.</_></rects>
              <tilted>0</tilted></feature>
            <threshold>-1.7405495047569275e-02</threshold>
            <left_val>6.5732120278092321e-01</left_val>
            <right_val>-4.0531421019192876e-01</right_val></_></_></trees>
      <stage_threshold>-1.2216522693634033e+00</stage_threshold>
      <parent>13</parent>
      <next>-1</next></_>
    <_>
      <trees>
        <_>
          <_>
            <feature>
              <rects>
                <_>
                  0 14 18 4 -1.</_>
                <_>
                  0 14 9 2 2.</_>
                <_>
                  9 16 9 2 2.</_></rects>
              <tilted>0</tilted></feature>
            <threshold>1.8091648817062378e-02</threshold>
            <left_val>-8.5935884177869648e-01</left_val>
            <right_val>5.2693208430912986e-01</right_val></_></_>
        <_>
          <_>
            <feature>
              <rects>
                <_>
                  8 11 2 2 -1.</_>
                <_>
                  8 12 2 1 2.</_></rects>
              <tilted>0</tilted></feature>
            <threshold>2.0735368598252535e-03</threshold>
            <left_val>-6.3441579863248576e-01</left_val>
            <right_val>5.7450306279776409e-01</right_val></_></_>
        <_>
          <_>
            <feature>
              <rects>
                <_>
                  11 6 3 12 -1.</_>
                <_>
                  11 10 3 4 3.</_></rects>
              <tilted>0</tilted></feature>
            <threshold>-2.9949205927550793e-03</threshold>
            <left_val>3.0071235990048800e-01</left_val>
            <right_val>-8.9197845485918315e-01</right_val></_></_>
        <_>
          <_>
            <feature>
              <rects>
                <_>
                  7 8 6 16 -1.</_>
                <_>
                  10 8 3 16 2.</_></rects>
              <tilted>0</tilted></feature>
            <threshold>2.2860007360577583e-02</threshold>
            <left_val>-7.8031046534889925e-01</left_val>
            <right_val>2.6224816592353539e-01</right_val></_></_>
        <_>
          <_>
            <feature>
              <rects>
                <_>
                  4 6 18 8 -1.</_>
                <_>
                  4 10 18 4 2.</_></rects>
              <tilted>0</tilted></feature>
            <threshold>-1.7204815521836281e-02</threshold>
            <left_val>-9.6873619386603882e-01</left_val>
            <right_val>2.3732977695628663e-01</right_val></_></_>
        <_>
          <_>
            <feature>
              <rects>
                <_>
                  2 14 12 1 -1.</_>
                <_>
                  6 14 4 1 3.</_></rects>
              <tilted>0</tilted></feature>
            <threshold>-1.6498095355927944e-03</threshold>
            <left_val>-6.6422015621519193e-01</left_val>
            <right_val>2.8769020168819748e-01</right_val></_></_></trees>
      <stage_threshold>-1.5984849929809570e+00</stage_threshold>
      <parent>14</parent>
      <next>-1</next></_>
    <_>
      <trees>
        <_>
          <_>
            <feature>
              <rects>
                <_>
                  10 7 7 12 -1.</_>
                <_>
                  10 11 7 4 3.</_></rects>
              <tilted>0</tilted></feature>
            <threshold>-1.9793536921497434e-04</threshold>
            <left_val>5.4661016949152219e-01</left_val>
            <right_val>-9.3709327548806920e-01</right_val></_></_>
        <_>
          <_>
            <feature>
              <rects>
                <_>
                  8 11 9 12 -1.</_>
                <_>
                  8 15 9 4 3.</_></rects>
              <tilted>0</tilted></feature>
            <threshold>5.8822404593229294e-02</threshold>
            <left_val>-8.8879595818197621e-01</left_val>
            <right_val>3.3974121956396114e-01</right_val></_></_>
        <_>
          <_>
            <feature>
              <rects>
                <_>
                  4 6 17 9 -1.</_>
                <_>
                  4 9 17 3 3.</_></rects>
              <tilted>0</tilted></feature>
            <threshold>-1.2133302167057991e-02</threshold>
            <left_val>-9.7256355081416002e-01</left_val>
            <right_val>2.6445178100037642e-01</right_val></_></_></trees>
      <stage_threshold>-1.5614374876022339e+00</stage_threshold>
      <parent>15</parent>
      <next>-1</next></_>
    <_>
      <trees>
        <_>
          <_>
            <feature>
              <rects>
                <_>
                  7 6 11 12 -1.</_>
                <_>
                  7 10 11 4 3.</_></rects>
              <tilted>0</tilted></feature>
            <threshold>-5.9868756216019392e-04</threshold>
            <left_val>6.9196428571428337e-01</left_val>
            <right_val>-9.6828752642706117e-01</right_val></_></_>
        <_>
          <_>
            <feature>
              <rects>
                <_>
                  10 11 9 12 -1.</_>
                <_>
                  10 15 9 4 3.</_></rects>
              <tilted>0</tilted></feature>
            <threshold>4.6394154429435730e-02</threshold>
            <left_val>-9.1022570097355948e-01</left_val>
            <right_val>4.8472475797216852e-01</right_val></_></_>
        <_>
          <_>
            <feature>
              <rects>
                <_>
                  3 6 4 4 -1.</_>
                <_>
                  5 6 2 4 2.</_></rects>
              <tilted>0</tilted></feature>
            <threshold>5.9695625677704811e-03</threshold>
            <left_val>-8.4812904017831381e-01</left_val>
            <right_val>4.7767795322637074e-01</right_val></_></_></trees>
      <stage_threshold>-1.4008352756500244e+00</stage_threshold>
      <parent>16</parent>
      <next>-1</next></_>
    <_>
      <trees>
        <_>
          <_>
            <feature>
              <rects>
                <_>
                  6 5 2 4 -1.</_>
                <_>
                  6 5 1 2 2.</_>
                <_>
                  7 7 1 2 2.</_></rects>
              <tilted>0</tilted></feature>
            <threshold>-7.0658945478498936e-03</threshold>
            <left_val>4.2499999999999782e-01</left_val>
            <right_val>-6.1351819757365567e-01</right_val></_></_>
        <_>
          <_>
            <feature>
              <rects>
                <_>
                  7 10 9 4 -1.</_>
                <_>
                  10 10 3 4 3.</_></rects>
              <tilted>0</tilted></feature>
            <threshold>-3.1503275968134403e-03</threshold>
            <left_val>-7.6572538534369183e-01</left_val>
            <right_val>2.3679774074912296e-01</right_val></_></_>
        <_>
          <_>
            <feature>
              <rects>
                <_>
                  5 16 13 3 -1.</_>
                <_>
                  5 17 13 1 3.</_></rects>
              <tilted>0</tilted></feature>
            <threshold>1.5539392828941345e-02</threshold>
            <left_val>-3.9780622810206667e-01</left_val>
            <right_val>6.0261097540174668e-01</right_val></_></_>
        <_>
          <_>
            <feature>
              <rects>
                <_>
                  3 6 11 6 -1.</_>
                <_>
                  3 9 11 3 2.</_></rects>
              <tilted>0</tilted></feature>
            <threshold>7.8091220930218697e-03</threshold>
            <left_val>2.3283817891215616e-01</left_val>
            <right_val>-9.6278988304560853e-01</right_val></_></_>
        <_>
          <_>
            <feature>
              <rects>
                <_>
                  6 6 4 4 -1.</_>
                <_>
                  6 8 4 2 2.</_></rects>
              <tilted>0</tilted></feature>
            <threshold>7.6897378312423825e-04</threshold>
            <left_val>-5.1720703616876451e-01</left_val>
            <right_val>4.2432569482642046e-01</right_val></_></_>
        <_>
          <_>
            <feature>
              <rects>
                <_>
                  10 8 4 6 -1.</_>
                <_>
                  10 11 4 3 2.</_></rects>
              <tilted>0</tilted></feature>
            <threshold>-7.5881108641624451e-03</threshold>
            <left_val>-9.2356754146129438e-01</left_val>
            <right_val>2.1066241482155854e-01</right_val></_></_></trees>
      <stage_threshold>-1.0049352645874023e+00</stage_threshold>
      <parent>17</parent>
      <next>-1</next></_>
    <_>
      <trees>
        <_>
          <_>
            <feature>
              <rects>
                <_>
                  13 14 2 4 -1.</_>
                <_>
                  13 16 2 2 2.</_></rects>
              <tilted>0</tilted></feature>
            <threshold>3.4626005217432976e-03</threshold>
            <left_val>-8.5185185185185130e-01</left_val>
            <right_val>1.4383561643835424e-01</right_val></_></_>
        <_>
          <_>
            <feature>
              <rects>
                <_>
                  3 10 8 6 -1.</_>
                <_>
                  3 10 4 3 2.</_>
                <_>
                  7 13 4 3 2.</_></rects>
              <tilted>0</tilted></feature>
            <threshold>7.4080415070056915e-03</threshold>
            <left_val>-9.1126664452829353e-01</left_val>
            <right_val>1.8749890591544505e-01</right_val></_></_>
        <_>
          <_>
            <feature>
              <rects>
                <_>
                  10 9 9 2 -1.</_>
                <_>
                  13 9 3 2 3.</_></rects>
              <tilted>0</tilted></feature>
            <threshold>1.0286644101142883e-02</threshold>
            <left_val>1.4584303229786358e-01</left_val>
            <right_val>-9.1270097441501863e-01</right_val></_></_>
        <_>
          <_>
            <feature>
              <rects>
                <_>
                  4 8 17 6 -1.</_>
                <_>
                  4 11 17 3 2.</_></rects>
              <tilted>0</tilted></feature>
            <threshold>1.2983093038201332e-02</threshold>
            <left_val>2.1139657112641827e-01</left_val>
            <right_val>-9.3004614848773282e-01</right_val></_></_></trees>
      <stage_threshold>-1.4058789014816284e+00</stage_threshold>
      <parent>18</parent>
      <next>-1</next></_></stages></cascade>
</opencv_storage>
