<?xml version="1.0"?>
<opencv_storage>
<cascade>
  <stageType>BOOST</stageType>
  <featureType>HAAR</featureType>
  <height>24</height>
  <width>24</width>
  <stageParams>
    <boostType>GAB</boostType>
    <minHitRate>9.9500000476837158e-01</minHitRate>
    <maxFalseAlarm>5.0000000000000000e-01</maxFalseAlarm>
    <weightTrimRate>9.4999998807907104e-01</weightTrimRate>
    <maxDepth>1</maxDepth>
    <maxWeakCount>100</maxWeakCount></stageParams>
  <featureParams>
    <maxCatCount>0</maxCatCount>
    <featSize>1</featSize>
    <mode>BASIC</mode></featureParams>
  <stageNum>16</stageNum>
  <stages>
    <!-- stage 0 -->
    <_>
      <maxWeakCount>3</maxWeakCount>
      <stageThreshold>-1.1687164306640625e+00</stageThreshold>
      <weakClassifiers>
        <_>
          <internalNodes>
            0 -1 16 6.3322044909000397e-02</internalNodes>
          <leafValues>
            -9.2725640535354614e-01 7.5777411460876465e-01</leafValues></_>
        <_>
          <internalNodes>
            0 -1 36 2.0998472347855568e-02</internalNodes>
          <leafValues>
            -9.3028879165649414e-01 4.9559706449508667e-01</leafValues></_>
        <_>
          <internalNodes>
            0 -1 66 1.2588476762175560e-02</internalNodes>
          <leafValues>
            -7.3705708980560303e-01 7.1815896034240723e-01</leafValues></_></weakClassifiers></_>
    <!-- stage 1 -->
    <_>
      <maxWeakCount>5</maxWeakCount>
      <stageThreshold>-1.4855527877807617e+00</stageThreshold>
      <weakClassifiers>
        <_>
          <internalNodes>
            0 -1 4 1.9016113132238388e-02</internalNodes>
          <leafValues>
            -8.7288886308670044e-01 6.1564624309539795e-01</leafValues></_>
        <_>
          <internalNodes>
            0 -1 0 1.6739591956138611e-02</internalNodes>
          <leafValues>
            -8.0749017000198364e-01 6.2272828817367554e-01</leafValues></_>
        <_>
          <internalNodes>
            0 -1 15 -1.9455254077911377e-02</internalNodes>
          <leafValues>
            4.9377587437629700e-01 -7.9625475406646729e-01</leafValues></_>
        <_>
          <internalNodes>
            0 -1 30 1.4580584131181240e-02</internalNodes>
          <leafValues>
            -7.3618108034133911e-01 5.1724529266357422e-01</leafValues></_>
        <_>
          <internalNodes>
            0 -1 95 -2.2888439707458019e-03</internalNodes>
          <leafValues>
            4.7383570671081543e-01 -7.4025666713714600e-01</leafValues></_></weakClassifiers></_>
    <!-- stage 2 -->
    <_>
      <maxWeakCount>5</maxWeakCount>
      <stageThreshold>-1.2152913808822632e+00</stageThreshold>
      <weakClassifiers>
        <_>
          <internalNodes>
            0 -1 13 1.8533645197749138e-02</internalNodes>
          <leafValues>
            -8.1215471029281616e-01 6.3711339235305786e-01</leafValues></_>
        <_>
          <internalNodes>
            0 -1 54 4.0886342525482178e-02</internalNodes>
          <leafValues>
            -7.4833470582962036e-01 6.2014484405517578e-01</leafValues></_>
        <_>
          <internalNodes>
            0 -1 99 -2.4816093966364861e-02</internalNodes>
          <leafValues>
            6.4731472730636597e-01 -5.9647786617279053e-01</leafValues></_>
        <_>
          <internalNodes>
            0 -1 59 5.9447325766086578e-03</internalNodes>
          <leafValues>
            -7.3773729801177979e-01 4.9887633323669434e-01</leafValues></_>
        <_>
          <internalNodes>
            0 -1 84 -3.5223066806793213e-03</internalNodes>
          <leafValues>
            4.4279950857162476e-01 -7.4848693609237671e-01</leafValues></_></weakClassifiers></_>
    <!-- stage 3 -->
    <_>
      <maxWeakCount>5</maxWeakCount>
      <stageThreshold>-1.6669055223464966e+00</stageThreshold>
      <weakClassifiers>
        <_>
          <internalNodes>
            0 -1 9 2.6287058368325233e-02</internalNodes>
          <leafValues>
            -8.1785714626312256e-01 3.8461539149284363e-01</leafValues></_>
        <_>
          <internalNodes>
            0 -1 82 -6.0998909175395966e-03</internalNodes>
          <leafValues>
            2.4148476123809814e-01 -8.5338050127029419e-01</leafValues></_>
        <_>
          <internalNodes>
            0 -1 83 -1.0825881734490395e-02</internalNodes>
          <leafValues>
            5.3443062305450439e-01 -6.1171853542327881e-01</leafValues></_>
        <_>
          <internalNodes>
            0 -1 31 8.9989788830280304e-03</internalNodes>
          <leafValues>
            -7.3885911703109741e-01 3.2664537429809570e-01</leafValues></_>
        <_>
          <internalNodes>
            0 -1 67 -1.9928321242332458e-02</internalNodes>
          <leafValues>
            -9.4258880615234375e-01 2.8940534591674805e-01</leafValues></_></weakClassifiers></_>
    <!-- stage 4 -->
    <_>
      <maxWeakCount>4</maxWeakCount>
      <stageThreshold>-1.1390008926391602e+00</stageThreshold>
      <weakClassifiers>
        <_>
          <internalNodes>
            0 -1 2 4.6680778264999390e-02</internalNodes>
          <leafValues>
            -8.0817049741744995e-01 3.7201365828514099e-01</leafValues></_>
        <_>
          <internalNodes>
            0 -1 71 -3.3310176804661751e-03</internalNodes>
          <leafValues>
            2.1087798476219177e-01 -9.6251350641250610e-01</leafValues></_>
        <_>
          <internalNodes>
            0 -1 46 -1.2720853090286255e-02</internalNodes>
          <leafValues>
            2.9291594028472900e-01 -8.4882187843322754e-01</leafValues></_>
        <_>
          <internalNodes>
            0 -1 81 -7.6408125460147858e-03</internalNodes>
          <leafValues>
            3.5131582617759705e-01 -8.3462429046630859e-01</leafValues></_></weakClassifiers></_>
    <!-- stage 5 -->
    <_>
      <maxWeakCount>6</maxWeakCount>
      <stageThreshold>-1.4273858070373535e+00</stageThreshold>
      <weakClassifiers>
        <_>
          <internalNodes>
            0 -1 6 4.2026270180940628e-02</internalNodes>
          <leafValues>
            -8.4677016735076904e-01 1.0582640022039413e-01</leafValues></_>
        <_>
          <internalNodes>
            0 -1 24 8.0502992495894432e-03</internalNodes>
          <leafValues>
            -5.6918203830718994e-01 5.6046128273010254e-01</leafValues></_>
        <_>
          <internalNodes>
            0 -1 28 7.3638353496789932e-03</internalNodes>
          <leafValues>
            -6.7887622117996216e-01 3.8610669970512390e-01</leafValues></_>
        <_>
          <internalNodes>
            0 -1 68 -8.3921512123197317e-04</internalNodes>
          <leafValues>
            2.5383833050727844e-01 -8.6215680837631226e-01</leafValues></_>
        <_>
          <internalNodes>
            0 -1 75 1.1204481124877930e-03</internalNodes>
          <leafValues>
            -7.9434150457382202e-01 2.9204881191253662e-01</leafValues></_>
        <_>
          <internalNodes>
            0 -1 86 -7.2917819488793612e-04</internalNodes>
          <leafValues>
            -7.1969753503799438e-01 2.5534915924072266e-01</leafValues></_></weakClassifiers></_>
    <!-- stage 6 -->
    <_>
      <maxWeakCount>5</maxWeakCount>
      <stageThreshold>-1.3251622915267944e+00</stageThreshold>
      <weakClassifiers>
        <_>
          <internalNodes>
            0 -1 51 6.7305371165275574e-02</internalNodes>
          <leafValues>
            -7.5642645359039307e-01 4.1505375504493713e-01</leafValues></_>
        <_>
          <internalNodes>
            0 -1 44 6.2158875167369843e-02</internalNodes>
          <leafValues>
            -6.1731535196304321e-01 4.4214513897895813e-01</leafValues></_>
        <_>
          <internalNodes>
            0 -1 19 5.2082026377320290e-03</internalNodes>
          <leafValues>
            -7.4246287345886230e-01 3.6172071099281311e-01</leafValues></_>
        <_>
          <internalNodes>
            0 -1 65 -7.2740744799375534e-03</internalNodes>
          <leafValues>
            5.5643296241760254e-01 -3.4191989898681641e-01</leafValues></_>
        <_>
          <internalNodes>
            0 -1 92 -1.7145036254078150e-03</internalNodes>
          <leafValues>
            2.3460945487022400e-01 -8.2612586021423340e-01</leafValues></_></weakClassifiers></_>
    <!-- stage 7 -->
    <_>
      <maxWeakCount>7</maxWeakCount>
      <stageThreshold>-1.8304113149642944e+00</stageThreshold>
      <weakClassifiers>
        <_>
          <internalNodes>
            0 -1 33 -6.6625154577195644e-03</internalNodes>
          <leafValues>
            4.8051947355270386e-01 -7.2849571704864502e-01</leafValues></_>
        <_>
          <internalNodes>
            0 -1 90 -6.6401194781064987e-03</internalNodes>
          <leafValues>
            3.5269516706466675e-01 -5.8441078662872314e-01</leafValues></_>
        <_>
          <internalNodes>
            0 -1 43 1.7702241893857718e-03</internalNodes>
          <leafValues>
            -7.1455603837966919e-01 2.4338385462760925e-01</leafValues></_>
        <_>
          <internalNodes>
            0 -1 26 -1.8184281885623932e-02</internalNodes>
          <leafValues>
            -8.9482527971267700e-01 1.7185749113559723e-01</leafValues></_>
        <_>
          <internalNodes>
            0 -1 8 1.9996136426925659e-02</internalNodes>
          <leafValues>
            3.1388932466506958e-01 -8.8622844219207764e-01</leafValues></_>
        <_>
          <internalNodes>
            0 -1 3 1.8314991146326065e-02</internalNodes>
          <leafValues>
            -4.9521145224571228e-01 3.5157403349876404e-01</leafValues></_>
        <_>
          <internalNodes>
            0 -1 89 -1.2166444212198257e-02</internalNodes>
          <leafValues>
            -9.3553537130355835e-01 2.0651595294475555e-01</leafValues></_></weakClassifiers></_>
    <!-- stage 8 -->
    <_>
      <maxWeakCount>7</maxWeakCount>
      <stageThreshold>-1.5789750814437866e+00</stageThreshold>
      <weakClassifiers>
        <_>
          <internalNodes>
            0 -1 74 1.9130002707242966e-02</internalNodes>
          <leafValues>
            -6.9457364082336426e-01 7.3643410205841064e-01</leafValues></_>
        <_>
          <internalNodes>
            0 -1 98 -3.6659277975559235e-02</internalNodes>
          <leafValues>
            4.3783199787139893e-01 -5.2338820695877075e-01</leafValues></_>
        <_>
          <internalNodes>
            0 -1 53 1.5359632670879364e-02</internalNodes>
          <leafValues>
            -6.0949927568435669e-01 4.0031081438064575e-01</leafValues></_>
        <_>
          <internalNodes>
            0 -1 57 -1.8366700038313866e-02</internalNodes>
          <leafValues>
            2.4204112589359283e-01 -8.4437441825866699e-01</leafValues></_>
        <_>
          <internalNodes>
            0 -1 72 6.0900291427969933e-03</internalNodes>
          <leafValues>
            2.0194359123706818e-01 -8.6490941047668457e-01</leafValues></_>
        <_>
          <internalNodes>
            0 -1 41 4.5666145160794258e-03</internalNodes>
          <leafValues>
            -6.5464693307876587e-01 2.9606831073760986e-01</leafValues></_>
        <_>
          <internalNodes>
            0 -1 20 8.3595942705869675e-03</internalNodes>
          <leafValues>
            -3.4772214293479919e-01 5.3575354814529419e-01</leafValues></_></weakClassifiers></_>
    <!-- stage 9 -->
    <_>
      <maxWeakCount>7</maxWeakCount>
      <stageThreshold>-1.9116964340209961e+00</stageThreshold>
      <weakClassifiers>
        <_>
          <internalNodes>
            0 -1 73 1.9517391920089722e-02</internalNodes>
          <leafValues>
            -6.9278508424758911e-01 7.0769232511520386e-01</leafValues></_>
        <_>
          <internalNodes>
            0 -1 1 1.0049895942211151e-01</internalNodes>
          <leafValues>
            -4.9069952964782715e-01 4.5237556099891663e-01</leafValues></_>
        <_>
          <internalNodes>
            0 -1 77 -1.0171206668019295e-02</internalNodes>
          <leafValues>
            6.7389613389968872e-01 -3.2981860637664795e-01</leafValues></_>
        <_>
          <internalNodes>
            0 -1 76 5.2633527666330338e-03</internalNodes>
          <leafValues>
            -5.4794347286224365e-01 3.7500664591789246e-01</leafValues></_>
        <_>
          <internalNodes>
            0 -1 12 2.6273991912603378e-02</internalNodes>
          <leafValues>
            1.9086131453514099e-01 -9.0673857927322388e-01</leafValues></_>
        <_>
          <internalNodes>
            0 -1 69 -7.5705172494053841e-03</internalNodes>
          <leafValues>
            2.5129878520965576e-01 -7.8488844633102417e-01</leafValues></_>
        <_>
          <internalNodes>
            0 -1 25 9.0882349759340286e-03</internalNodes>
          <leafValues>
            -2.9260990023612976e-01 6.1332416534423828e-01</leafValues></_></weakClassifiers></_>
    <!-- stage 10 -->
    <_>
      <maxWeakCount>6</maxWeakCount>
      <stageThreshold>-1.3683799505233765e+00</stageThreshold>
      <weakClassifiers>
        <_>
          <internalNodes>
            0 -1 80 -1.5216015279293060e-02</internalNodes>
          <leafValues>
            7.5000000000000000e-01 -6.8591225147247314e-01</leafValues></_>
        <_>
          <internalNodes>
            0 -1 49 6.3432842493057251e-02</internalNodes>
          <leafValues>
            -4.4691768288612366e-01 6.1245787143707275e-01</leafValues></_>
        <_>
          <internalNodes>
            0 -1 64 2.6528581976890564e-02</internalNodes>
          <leafValues>
            -3.2608780264854431e-01 6.5263891220092773e-01</leafValues></_>
        <_>
          <internalNodes>
            0 -1 18 9.9473502486944199e-03</internalNodes>
          <leafValues>
            -5.9352737665176392e-01 3.7585002183914185e-01</leafValues></_>
        <_>
          <internalNodes>
            0 -1 42 -2.1127050742506981e-02</internalNodes>
          <leafValues>
            5.8078044652938843e-01 -3.1200519204139709e-01</leafValues></_>
        <_>
          <internalNodes>
            0 -1 40 -2.9292149469256401e-02</internalNodes>
          <leafValues>
            -8.7544196844100952e-01 2.0703795552253723e-01</leafValues></_></weakClassifiers></_>
    <!-- stage 11 -->
    <_>
      <maxWeakCount>7</maxWeakCount>
      <stageThreshold>-1.1198142766952515e+00</stageThreshold>
      <weakClassifiers>
        <_>
          <internalNodes>
            0 -1 91 1.6235155984759331e-02</internalNodes>
          <leafValues>
            -6.9381362199783325e-01 5.9859156608581543e-01</leafValues></_>
        <_>
          <internalNodes>
            0 -1 100 -1.6012292355298996e-02</internalNodes>
          <leafValues>
            3.4718501567840576e-01 -5.2902692556381226e-01</leafValues></_>
        <_>
          <internalNodes>
            0 -1 38 1.5806218143552542e-03</internalNodes>
          <leafValues>
            -4.5102849602699280e-01 4.3439558148384094e-01</leafValues></_>
        <_>
          <internalNodes>
            0 -1 11 2.2207001224160194e-02</internalNodes>
          <leafValues>
            2.0436356961727142e-01 -8.7903326749801636e-01</leafValues></_>
        <_>
          <internalNodes>
            0 -1 37 -1.7630800604820251e-02</internalNodes>
          <leafValues>
            -8.3624488115310669e-01 2.2088310122489929e-01</leafValues></_>
        <_>
          <internalNodes>
            0 -1 45 -4.9726758152246475e-03</internalNodes>
          <leafValues>
            1.7303207516670227e-01 -9.0761226415634155e-01</leafValues></_>
        <_>
          <internalNodes>
            0 -1 35 2.1663787774741650e-03</internalNodes>
          <leafValues>
            -8.3739805221557617e-01 1.6296097636222839e-01</leafValues></_></weakClassifiers></_>
    <!-- stage 12 -->
    <_>
      <maxWeakCount>10</maxWeakCount>
      <stageThreshold>-1.9429755210876465e+00</stageThreshold>
      <weakClassifiers>
        <_>
          <internalNodes>
            0 -1 91 1.2743283063173294e-02</internalNodes>
          <leafValues>
            -7.0996731519699097e-01 3.4871795773506165e-01</leafValues></_>
        <_>
          <internalNodes>
            0 -1 85 3.8271518424153328e-03</internalNodes>
          <leafValues>
            -6.3714098930358887e-01 2.0692841708660126e-01</leafValues></_>
        <_>
          <internalNodes>
            0 -1 27 -6.2399930320680141e-03</internalNodes>
          <leafValues>
            3.2186189293861389e-01 -5.2707511186599731e-01</leafValues></_>
        <_>
          <internalNodes>
            0 -1 94 8.3159087225794792e-03</internalNodes>
          <leafValues>
            -2.1318444609642029e-01 7.6688510179519653e-01</leafValues></_>
        <_>
          <internalNodes>
            0 -1 60 1.0441287420690060e-02</internalNodes>
          <leafValues>
            -5.6418520212173462e-01 2.9272615909576416e-01</leafValues></_>
        <_>
          <internalNodes>
            0 -1 70 -4.8556057736277580e-03</internalNodes>
          <leafValues>
            2.2093057632446289e-01 -7.6906085014343262e-01</leafValues></_>
        <_>
          <internalNodes>
            0 -1 50 2.7633411809802055e-02</internalNodes>
          <leafValues>
            -3.0129989981651306e-01 6.3089132308959961e-01</leafValues></_>
        <_>
          <internalNodes>
            0 -1 62 -1.0395006276667118e-02</internalNodes>
          <leafValues>
            6.7828541994094849e-01 -2.1183367073535919e-01</leafValues></_>
        <_>
          <internalNodes>
            0 -1 88 3.5484130494296551e-03</internalNodes>
          <leafValues>
            -4.7219544649124146e-01 3.5197415947914124e-01</leafValues></_>
        <_>
          <internalNodes>
            0 -1 87 8.2588158547878265e-03</internalNodes>
          <leafValues>
            -2.0013067126274109e-01 7.1804386377334595e-01</leafValues></_></weakClassifiers></_>
    <!-- stage 13 -->
    <_>
      <maxWeakCount>8</maxWeakCount>
      <stageThreshold>-1.4949641227722168e+00</stageThreshold>
      <weakClassifiers>
        <_>
          <internalNodes>
            0 -1 93 1.3296650722622871e-02</internalNodes>
          <leafValues>
            -6.9580841064453125e-01 4.2342340946197510e-01</leafValues></_>
        <_>
          <internalNodes>
            0 -1 21 1.1200612410902977e-02</internalNodes>
          <leafValues>
            -4.3070301413536072e-01 4.6567434072494507e-01</leafValues></_>
        <_>
          <internalNodes>
            0 -1 79 -2.7818582020699978e-03</internalNodes>
          <leafValues>
            2.3668789863586426e-01 -7.1549075841903687e-01</leafValues></_>
        <_>
          <internalNodes>
            0 -1 23 1.8702380359172821e-02</internalNodes>
          <leafValues>
            -3.0103546380996704e-01 5.8075439929962158e-01</leafValues></_>
        <_>
          <internalNodes>
            0 -1 61 3.4667991712922230e-05</internalNodes>
          <leafValues>
            -7.0028722286224365e-01 2.1979150176048279e-01</leafValues></_>
        <_>
          <internalNodes>
            0 -1 7 -2.4578098207712173e-02</internalNodes>
          <leafValues>
            -7.6759445667266846e-01 1.9266597926616669e-01</leafValues></_>
        <_>
          <internalNodes>
            0 -1 5 1.4132213545963168e-03</internalNodes>
          <leafValues>
            1.4295597374439240e-01 -8.8295263051986694e-01</leafValues></_>
        <_>
          <internalNodes>
            0 -1 55 -3.1346487812697887e-03</internalNodes>
          <leafValues>
            1.0074187070131302e-01 -9.5684033632278442e-01</leafValues></_></weakClassifiers></_>
    <!-- stage 14 -->
    <_>
      <maxWeakCount>9</maxWeakCount>
      <stageThreshold>-1.6871589422225952e+00</stageThreshold>
      <weakClassifiers>
        <_>
          <internalNodes>
            0 -1 47 8.2619208842515945e-03</internalNodes>
          <leafValues>
            -7.0864194631576538e-01 2.9411765933036804e-01</leafValues></_>
        <_>
          <internalNodes>
            0 -1 63 1.9721233911695890e-05</internalNodes>
          <leafValues>
            -6.0426992177963257e-01 1.8599717319011688e-01</leafValues></_>
        <_>
          <internalNodes>
            0 -1 97 -9.0353647246956825e-03</internalNodes>
          <leafValues>
            3.0729284882545471e-01 -5.7142966985702515e-01</leafValues></_>
        <_>
          <internalNodes>
            0 -1 32 4.5405350625514984e-02</internalNodes>
          <leafValues>
            -6.8090444803237915e-01 2.2376938164234161e-01</leafValues></_>
        <_>
          <internalNodes>
            0 -1 29 3.6004763096570969e-03</internalNodes>
          <leafValues>
            -2.4270340800285339e-01 6.6262036561965942e-01</leafValues></_>
        <_>
          <internalNodes>
            0 -1 22 7.7166697010397911e-03</internalNodes>
          <leafValues>
            -5.7345843315124512e-01 2.8229296207427979e-01</leafValues></_>
        <_>
          <internalNodes>
            0 -1 48 1.0519659146666527e-02</internalNodes>
          <leafValues>
            -2.6874038577079773e-01 5.6746345758438110e-01</leafValues></_>
        <_>
          <internalNodes>
            0 -1 17 -4.6848200261592865e-02</internalNodes>
          <leafValues>
            -8.6565077304840088e-01 2.0567625761032104e-01</leafValues></_>
        <_>
          <internalNodes>
            0 -1 14 2.1102022379636765e-02</internalNodes>
          <leafValues>
            1.3084210455417633e-01 -8.1630027294158936e-01</leafValues></_></weakClassifiers></_>
    <!-- stage 15 -->
    <_>
      <maxWeakCount>9</maxWeakCount>
      <stageThreshold>-1.6094535589218140e+00</stageThreshold>
      <weakClassifiers>
        <_>
          <internalNodes>
            0 -1 56 -1.6813270747661591e-02</internalNodes>
          <leafValues>
            3.6338028311729431e-01 -6.9714057445526123e-01</leafValues></_>
        <_>
          <internalNodes>
            0 -1 78 2.4835161864757538e-02</internalNodes>
          <leafValues>
            -5.4539924860000610e-01 2.0060509443283081e-01</leafValues></_>
        <_>
          <internalNodes>
            0 -1 34 -5.9047695249319077e-03</internalNodes>
          <leafValues>
            5.0932991504669189e-01 -2.9442322254180908e-01</leafValues></_>
        <_>
          <internalNodes>
            0 -1 10 -6.5029105171561241e-03</internalNodes>
          <leafValues>
            -6.9764435291290283e-01 1.9102285802364349e-01</leafValues></_>
        <_>
          <internalNodes>
            0 -1 101 8.3338432013988495e-03</internalNodes>
          <leafValues>
            1.2097448855638504e-01 -9.5456075668334961e-01</leafValues></_>
        <_>
          <internalNodes>
            0 -1 96 1.9901349151041359e-04</internalNodes>
          <leafValues>
            -6.6858494281768799e-01 1.7081169784069061e-01</leafValues></_>
        <_>
          <internalNodes>
            0 -1 58 7.8860428184270859e-03</internalNodes>
          <leafValues>
            -6.4734619855880737e-01 1.7783311009407043e-01</leafValues></_>
        <_>
          <internalNodes>
            0 -1 39 2.9487051069736481e-02</internalNodes>
          <leafValues>
            1.3933511078357697e-01 -8.1466013193130493e-01</leafValues></_>
        <_>
          <internalNodes>
            0 -1 52 1.1291248723864555e-02</internalNodes>
          <leafValues>
            8.1527464091777802e-02 -9.6547883749008179e-01</leafValues></_></weakClassifiers></_></stages>
  <features>
    <_>
      <rects>
        <_>
          0 2 12 4 -1.</_>
        <_>
          0 2 6 2 2.</_>
        <_>
          6 4 6 2 2.</_></rects>
      <tilted>0</tilted></_>
    <_>
      <rects>
        <_>
          0 3 8 17 -1.</_>
        <_>
          4 3 4 17 2.</_></rects>
      <tilted>0</tilted></_>
    <_>
      <rects>
        <_>
          0 4 24 1 -1.</_>
        <_>
          8 4 8 1 3.</_></rects>
      <tilted>0</tilted></_>
    <_>
      <rects>
        <_>
          0 6 6 6 -1.</_>
        <_>
          3 6 3 6 2.</_></rects>
      <tilted>0</tilted></_>
    <_>
      <rects>
        <_>
          0 9 6 5 -1.</_>
        <_>
          3 9 3 5 2.</_></rects>
      <tilted>0</tilted></_>
    <_>
      <rects>
        <_>
          0 11 4 2 -1.</_>
        <_>
          0 12 4 1 2.</_></rects>
      <tilted>0</tilted></_>
    <_>
      <rects>
        <_>
          1 6 6 11 -1.</_>
        <_>
          4 6 3 11 2.</_></rects>
      <tilted>0</tilted></_>
    <_>
      <rects>
        <_>
          1 7 20 10 -1.</_>
        <_>
          1 12 20 5 2.</_></rects>
      <tilted>0</tilted></_>
    <_>
      <rects>
        <_>
          2 5 17 10 -1.</_>
        <_>
          2 10 17 5 2.</_></rects>
      <tilted>0</tilted></_>
    <_>
      <rects>
        <_>
          2 8 4 9 -1.</_>
        <_>
          4 8 2 9 2.</_></rects>
      <tilted>0</tilted></_>
    <_>
      <rects>
        <_>
          2 8 14 3 -1.</_>
        <_>
          9 8 7 3 2.</_></rects>
      <tilted>0</tilted></_>
    <_>
      <rects>
        <_>
          2 8 18 8 -1.</_>
        <_>
          2 12 18 4 2.</_></rects>
      <tilted>0</tilted></_>
    <_>
      <rects>
        <_>
          2 9 22 8 -1.</_>
        <_>
          2 9 11 4 2.</_>
        <_>
          13 13 11 4 2.</_></rects>
      <tilted>0</tilted></_>
    <_>
      <rects>
        <_>
          2 10 6 3 -1.</_>
        <_>
          4 10 2 3 3.</_></rects>
      <tilted>0</tilted></_>
    <_>
      <rects>
        <_>
          2 11 12 3 -1.</_>
        <_>
          8 11 6 3 2.</_></rects>
      <tilted>0</tilted></_>
    <_>
      <rects>
        <_>
          2 16 12 8 -1.</_>
        <_>
          2 16 6 4 2.</_>
        <_>
          8 20 6 4 2.</_></rects>
      <tilted>0</tilted></_>
    <_>
      <rects>
        <_>
          3 3 18 4 -1.</_>
        <_>
          9 3 6 4 3.</_></rects>
      <tilted>0</tilted></_>
    <_>
      <rects>
        <_>
          3 3 9 12 -1.</_>
        <_>
          3 7 9 4 3.</_></rects>
      <tilted>0</tilted></_>
    <_>
      <rects>
        <_>
          3 5 4 12 -1.</_>
        <_>
          3 9 4 4 3.</_></rects>
      <tilted>0</tilted></_>
    <_>
      <rects>
        <_>
          3 6 3 12 -1.</_>
        <_>
          3 10 3 4 3.</_></rects>
      <tilted>0</tilted></_>
    <_>
      <rects>
        <_>
          3 8 3 7 -1.</_>
        <_>
          4 8 1 7 3.</_></rects>
      <tilted>0</tilted></_>
    <_>
      <rects>
        <_>
          3 8 2 8 -1.</_>
        <_>
          4 8 1 8 2.</_></rects>
      <tilted>0</tilted></_>
    <_>
      <rects>
        <_>
          3 15 6 4 -1.</_>
        <_>
          6 15 3 4 2.</_></rects>
      <tilted>0</tilted></_>
    <_>
      <rects>
        <_>
          4 2 6 4 -1.</_>
        <_>
          4 2 3 2 2.</_>
        <_>
          7 4 3 2 2.</_></rects>
      <tilted>0</tilted></_>
    <_>
      <rects>
        <_>
          4 2 8 2 -1.</_>
        <_>
          4 2 4 1 2.</_>
        <_>
          8 3 4 1 2.</_></rects>
      <tilted>0</tilted></_>
    <_>
      <rects>
        <_>
          4 6 2 8 -1.</_>
        <_>
          5 6 1 8 2.</_></rects>
      <tilted>0</tilted></_>
    <_>
      <rects>
        <_>
          4 6 17 8 -1.</_>
        <_>
          4 10 17 4 2.</_></rects>
      <tilted>0</tilted></_>
    <_>
      <rects>
        <_>
          4 14 3 6 -1.</_>
        <_>
          4 17 3 3 2.</_></rects>
      <tilted>0</tilted></_>
    <_>
      <rects>
        <_>
          4 16 6 4 -1.</_>
        <_>
          7 16 3 4 2.</_></rects>
      <tilted>0</tilted></_>
    <_>
      <rects>
        <_>
          5 2 2 4 -1.</_>
        <_>
          5 2 1 2 2.</_>
        <_>
          6 4 1 2 2.</_></rects>
      <tilted>0</tilted></_>
    <_>
      <rects>
        <_>
          5 3 12 3 -1.</_>
        <_>
          9 3 4 3 3.</_></rects>
      <tilted>0</tilted></_>
    <_>
      <rects>
        <_>
          5 3 8 6 -1.</_>
        <_>
          9 3 4 6 2.</_></rects>
      <tilted>0</tilted></_>
    <_>
      <rects>
        <_>
          5 3 15 7 -1.</_>
        <_>
          10 3 5 7 3.</_></rects>
      <tilted>0</tilted></_>
    <_>
      <rects>
        <_>
          5 4 2 6 -1.</_>
        <_>
          5 4 1 3 2.</_>
        <_>
          6 7 1 3 2.</_></rects>
      <tilted>0</tilted></_>
    <_>
      <rects>
        <_>
          5 9 2 5 -1.</_>
        <_>
          6 9 1 5 2.</_></rects>
      <tilted>0</tilted></_>
    <_>
      <rects>
        <_>
          5 11 10 10 -1.</_>
        <_>
          10 11 5 10 2.</_></rects>
      <tilted>0</tilted></_>
    <_>
      <rects>
        <_>
          5 16 15 4 -1.</_>
        <_>
          10 16 5 4 3.</_></rects>
      <tilted>0</tilted></_>
    <_>
      <rects>
        <_>
          6 1 8 18 -1.</_>
        <_>
          6 10 8 9 2.</_></rects>
      <tilted>0</tilted></_>
    <_>
      <rects>
        <_>
          6 4 2 2 -1.</_>
        <_>
          6 5 2 1 2.</_></rects>
      <tilted>0</tilted></_>
    <_>
      <rects>
        <_>
          6 7 14 9 -1.</_>
        <_>
          13 7 7 9 2.</_></rects>
      <tilted>0</tilted></_>
    <_>
      <rects>
        <_>
          6 8 18 10 -1.</_>
        <_>
          6 13 18 5 2.</_></rects>
      <tilted>0</tilted></_>
    <_>
      <rects>
        <_>
          6 17 6 4 -1.</_>
        <_>
          9 17 3 4 2.</_></rects>
      <tilted>0</tilted></_>
    <_>
      <rects>
        <_>
          7 1 10 3 -1.</_>
        <_>
          7 2 10 1 3.</_></rects>
      <tilted>0</tilted></_>
    <_>
      <rects>
        <_>
          7 2 4 4 -1.</_>
        <_>
          9 2 2 4 2.</_></rects>
      <tilted>0</tilted></_>
    <_>
      <rects>
        <_>
          7 2 10 6 -1.</_>
        <_>
          7 4 10 2 3.</_></rects>
      <tilted>0</tilted></_>
    <_>
      <rects>
        <_>
          7 3 9 10 -1.</_>
        <_>
          7 8 9 5 2.</_></rects>
      <tilted>0</tilted></_>
    <_>
      <rects>
        <_>
          7 4 7 8 -1.</_>
        <_>
          7 8 7 4 2.</_></rects>
      <tilted>0</tilted></_>
    <_>
      <rects>
        <_>
          7 8 3 7 -1.</_>
        <_>
          8 8 1 7 3.</_></rects>
      <tilted>0</tilted></_>
    <_>
      <rects>
        <_>
          7 10 4 6 -1.</_>
        <_>
          7 12 4 2 3.</_></rects>
      <tilted>0</tilted></_>
    <_>
      <rects>
        <_>
          7 14 11 6 -1.</_>
        <_>
          7 16 11 2 3.</_></rects>
      <tilted>0</tilted></_>
    <_>
      <rects>
        <_>
          7 15 10 4 -1.</_>
        <_>
          7 17 10 2 2.</_></rects>
      <tilted>0</tilted></_>
    <_>
      <rects>
        <_>
          7 15 10 6 -1.</_>
        <_>
          7 17 10 2 3.</_></rects>
      <tilted>0</tilted></_>
    <_>
      <rects>
        <_>
          7 18 6 4 -1.</_>
        <_>
          9 18 2 4 3.</_></rects>
      <tilted>0</tilted></_>
    <_>
      <rects>
        <_>
          8 2 3 6 -1.</_>
        <_>
          8 4 3 2 3.</_></rects>
      <tilted>0</tilted></_>
    <_>
      <rects>
        <_>
          8 2 8 6 -1.</_>
        <_>
          8 4 8 2 3.</_></rects>
      <tilted>0</tilted></_>
    <_>
      <rects>
        <_>
          8 3 5 10 -1.</_>
        <_>
          8 8 5 5 2.</_></rects>
      <tilted>0</tilted></_>
    <_>
      <rects>
        <_>
          8 4 2 6 -1.</_>
        <_>
          8 6 2 2 3.</_></rects>
      <tilted>0</tilted></_>
    <_>
      <rects>
        <_>
          8 4 6 15 -1.</_>
        <_>
          8 9 6 5 3.</_></rects>
      <tilted>0</tilted></_>
    <_>
      <rects>
        <_>
          8 7 6 12 -1.</_>
        <_>
          8 13 6 6 2.</_></rects>
      <tilted>0</tilted></_>
    <_>
      <rects>
        <_>
          8 11 7 8 -1.</_>
        <_>
          8 15 7 4 2.</_></rects>
      <tilted>0</tilted></_>
    <_>
      <rects>
        <_>
          8 15 9 4 -1.</_>
        <_>
          11 15 3 4 3.</_></rects>
      <tilted>0</tilted></_>
    <_>
      <rects>
        <_>
          8 17 2 4 -1.</_>
        <_>
          9 17 1 4 2.</_></rects>
      <tilted>0</tilted></_>
    <_>
      <rects>
        <_>
          9 0 6 2 -1.</_>
        <_>
          9 1 6 1 2.</_></rects>
      <tilted>0</tilted></_>
    <_>
      <rects>
        <_>
          9 7 8 4 -1.</_>
        <_>
          9 9 8 2 2.</_></rects>
      <tilted>0</tilted></_>
    <_>
      <rects>
        <_>
          9 16 5 6 -1.</_>
        <_>
          9 18 5 2 3.</_></rects>
      <tilted>0</tilted></_>
    <_>
      <rects>
        <_>
          10 0 4 3 -1.</_>
        <_>
          10 1 4 1 3.</_></rects>
      <tilted>0</tilted></_>
    <_>
      <rects>
        <_>
          10 1 4 4 -1.</_>
        <_>
          10 3 4 2 2.</_></rects>
      <tilted>0</tilted></_>
    <_>
      <rects>
        <_>
          10 1 6 18 -1.</_>
        <_>
          10 10 6 9 2.</_></rects>
      <tilted>0</tilted></_>
    <_>
      <rects>
        <_>
          10 3 3 20 -1.</_>
        <_>
          10 13 3 10 2.</_></rects>
      <tilted>0</tilted></_>
    <_>
      <rects>
        <_>
          10 3 8 11 -1.</_>
        <_>
          14 3 4 11 2.</_></rects>
      <tilted>0</tilted></_>
    <_>
      <rects>
        <_>
          10 3 5 20 -1.</_>
        <_>
          10 13 5 10 2.</_></rects>
      <tilted>0</tilted></_>
    <_>
      <rects>
        <_>
          10 4 7 20 -1.</_>
        <_>
          10 14 7 10 2.</_></rects>
      <tilted>0</tilted></_>
    <_>
      <rects>
        <_>
          10 5 5 18 -1.</_>
        <_>
          10 14 5 9 2.</_></rects>
      <tilted>0</tilted></_>
    <_>
      <rects>
        <_>
          10 6 3 10 -1.</_>
        <_>
          11 6 1 10 3.</_></rects>
      <tilted>0</tilted></_>
    <_>
      <rects>
        <_>
          11 7 3 10 -1.</_>
        <_>
          12 7 1 10 3.</_></rects>
      <tilted>0</tilted></_>
    <_>
      <rects>
        <_>
          11 8 3 12 -1.</_>
        <_>
          11 14 3 6 2.</_></rects>
      <tilted>0</tilted></_>
    <_>
      <rects>
        <_>
          11 13 3 6 -1.</_>
        <_>
          11 16 3 3 2.</_></rects>
      <tilted>0</tilted></_>
    <_>
      <rects>
        <_>
          12 2 8 2 -1.</_>
        <_>
          12 2 4 1 2.</_>
        <_>
          16 3 4 1 2.</_></rects>
      <tilted>0</tilted></_>
    <_>
      <rects>
        <_>
          12 2 4 6 -1.</_>
        <_>
          12 4 4 2 3.</_></rects>
      <tilted>0</tilted></_>
    <_>
      <rects>
        <_>
          12 6 6 16 -1.</_>
        <_>
          12 6 3 8 2.</_>
        <_>
          15 14 3 8 2.</_></rects>
      <tilted>0</tilted></_>
    <_>
      <rects>
        <_>
          12 8 3 6 -1.</_>
        <_>
          13 8 1 6 3.</_></rects>
      <tilted>0</tilted></_>
    <_>
      <rects>
        <_>
          12 15 6 5 -1.</_>
        <_>
          15 15 3 5 2.</_></rects>
      <tilted>0</tilted></_>
    <_>
      <rects>
        <_>
          12 16 1 8 -1.</_>
        <_>
          12 20 1 4 2.</_></rects>
      <tilted>0</tilted></_>
    <_>
      <rects>
        <_>
          13 2 8 4 -1.</_>
        <_>
          13 2 4 2 2.</_>
        <_>
          17 4 4 2 2.</_></rects>
      <tilted>0</tilted></_>
    <_>
      <rects>
        <_>
          13 3 4 5 -1.</_>
        <_>
          15 3 2 5 2.</_></rects>
      <tilted>0</tilted></_>
    <_>
      <rects>
        <_>
          13 3 5 2 -1.</_>
        <_>
          13 4 5 1 2.</_></rects>
      <tilted>0</tilted></_>
    <_>
      <rects>
        <_>
          13 7 7 6 -1.</_>
        <_>
          13 9 7 2 3.</_></rects>
      <tilted>0</tilted></_>
    <_>
      <rects>
        <_>
          13 8 3 6 -1.</_>
        <_>
          14 8 1 6 3.</_></rects>
      <tilted>0</tilted></_>
    <_>
      <rects>
        <_>
          13 11 9 3 -1.</_>
        <_>
          16 11 3 3 3.</_></rects>
      <tilted>0</tilted></_>
    <_>
      <rects>
        <_>
          14 2 3 16 -1.</_>
        <_>
          14 10 3 8 2.</_></rects>
      <tilted>0</tilted></_>
    <_>
      <rects>
        <_>
          14 5 8 1 -1.</_>
        <_>
          18 5 4 1 2.</_></rects>
      <tilted>0</tilted></_>
    <_>
      <rects>
        <_>
          14 8 3 6 -1.</_>
        <_>
          15 8 1 6 3.</_></rects>
      <tilted>0</tilted></_>
    <_>
      <rects>
        <_>
          14 16 4 4 -1.</_>
        <_>
          16 16 2 4 2.</_></rects>
      <tilted>0</tilted></_>
    <_>
      <rects>
        <_>
          15 4 4 4 -1.</_>
        <_>
          15 4 2 2 2.</_>
        <_>
          17 6 2 2 2.</_></rects>
      <tilted>0</tilted></_>
    <_>
      <rects>
        <_>
          15 8 3 5 -1.</_>
        <_>
          16 8 1 5 3.</_></rects>
      <tilted>0</tilted></_>
    <_>
      <rects>
        <_>
          15 15 4 5 -1.</_>
        <_>
          17 15 2 5 2.</_></rects>
      <tilted>0</tilted></_>
    <_>
      <rects>
        <_>
          16 6 4 6 -1.</_>
        <_>
          16 9 4 3 2.</_></rects>
      <tilted>0</tilted></_>
    <_>
      <rects>
        <_>
          16 13 6 6 -1.</_>
        <_>
          19 13 3 6 2.</_></rects>
      <tilted>0</tilted></_>
    <_>
      <rects>
        <_>
          17 6 6 11 -1.</_>
        <_>
          20 6 3 11 2.</_></rects>
      <tilted>0</tilted></_>
    <_>
      <rects>
        <_>
          17 6 6 12 -1.</_>
        <_>
          20 6 3 12 2.</_></rects>
      <tilted>0</tilted></_>
    <_>
      <rects>
        <_>
          18 7 6 6 -1.</_>
        <_>
          21 7 3 6 2.</_></rects>
      <tilted>0</tilted></_>
    <_>
      <rects>
        <_>
          18 7 4 6 -1.</_>
        <_>
          18 9 4 2 3.</_></rects>
      <tilted>0</tilted></_></features></cascade>
</opencv_storage>
