<?xml version="1.0"?>
<opencv_storage>
<stage14>
  <maxWeakCount>9</maxWeakCount>
  <stageThreshold>-1.6871589422225952e+00</stageThreshold>
  <weakClassifiers>
    <_>
      <internalNodes>
        0 -1 85807 8.2619208842515945e-03</internalNodes>
      <leafValues>
        -7.0864194631576538e-01 2.9411765933036804e-01</leafValues></_>
    <_>
      <internalNodes>
        0 -1 103058 1.9721233911695890e-05</internalNodes>
      <leafValues>
        -6.0426992177963257e-01 1.8599717319011688e-01</leafValues></_>
    <_>
      <internalNodes>
        0 -1 147488 -9.0353647246956825e-03</internalNodes>
      <leafValues>
        3.0729284882545471e-01 -5.7142966985702515e-01</leafValues></_>
    <_>
      <internalNodes>
        0 -1 63149 4.5405350625514984e-02</internalNodes>
      <leafValues>
        -6.8090444803237915e-01 2.2376938164234161e-01</leafValues></_>
    <_>
      <internalNodes>
        0 -1 62079 3.6004763096570969e-03</internalNodes>
      <leafValues>
        -2.4270340800285339e-01 6.6262036561965942e-01</leafValues></_>
    <_>
      <internalNodes>
        0 -1 47912 7.7166697010397911e-03</internalNodes>
      <leafValues>
        -5.7345843315124512e-01 2.8229296207427979e-01</leafValues></_>
    <_>
      <internalNodes>
        0 -1 86870 1.0519659146666527e-02</internalNodes>
      <leafValues>
        -2.6874038577079773e-01 5.6746345758438110e-01</leafValues></_>
    <_>
      <internalNodes>
        0 -1 41214 -4.6848200261592865e-02</internalNodes>
      <leafValues>
        -8.6565077304840088e-01 2.0567625761032104e-01</leafValues></_>
    <_>
      <internalNodes>
        0 -1 34604 2.1102022379636765e-02</internalNodes>
      <leafValues>
        1.3084210455417633e-01 -8.1630027294158936e-01</leafValues></_></weakClassifiers></stage14>
</opencv_storage>
