<?xml version="1.0"?>
<opencv_storage>
<stage17>
  <maxWeakCount>6</maxWeakCount>
  <stageThreshold>-1.2669336795806885e+00</stageThreshold>
  <weakClassifiers>
    <_>
      <internalNodes>
        0 -1 104021 -3.6035925149917603e-03</internalNodes>
      <leafValues>
        7.6430976390838623e-01 -6.4663463830947876e-01</leafValues></_>
    <_>
      <internalNodes>
        0 -1 69389 5.5406339466571808e-02</internalNodes>
      <leafValues>
        -9.1826796531677246e-01 2.2379893064498901e-01</leafValues></_>
    <_>
      <internalNodes>
        0 -1 142338 2.5295077357441187e-03</internalNodes>
      <leafValues>
        1.9297622144222260e-01 -9.3320173025131226e-01</leafValues></_>
    <_>
      <internalNodes>
        0 -1 135495 2.7601900510489941e-03</internalNodes>
      <leafValues>
        -4.2095896601676941e-01 5.1616048812866211e-01</leafValues></_>
    <_>
      <internalNodes>
        0 -1 147628 -8.0542191863059998e-03</internalNodes>
      <leafValues>
        3.2647415995597839e-01 -6.2993234395980835e-01</leafValues></_>
    <_>
      <internalNodes>
        0 -1 54227 6.6401287913322449e-02</internalNodes>
      <leafValues>
        2.3424199223518372e-01 -9.4258940219879150e-01</leafValues></_></weakClassifiers></stage17>
</opencv_storage>
