<?xml version="1.0"?>
<opencv_storage>
<stage7>
  <maxWeakCount>6</maxWeakCount>
  <stageThreshold>-1.2457259893417358e+00</stageThreshold>
  <weakClassifiers>
    <_>
      <internalNodes>
        0 -1 56255 -1.6043253242969513e-02</internalNodes>
      <leafValues>
        1.2954545021057129e-01 -8.9084184169769287e-01</leafValues></_>
    <_>
      <internalNodes>
        0 -1 129030 1.5001296997070313e-02</internalNodes>
      <leafValues>
        -5.9643203020095825e-01 4.4374823570251465e-01</leafValues></_>
    <_>
      <internalNodes>
        0 -1 120010 -1.7465990036725998e-02</internalNodes>
      <leafValues>
        3.1763982772827148e-01 -8.9695739746093750e-01</leafValues></_>
    <_>
      <internalNodes>
        0 -1 29012 3.9483539760112762e-02</internalNodes>
      <leafValues>
        -7.0471274852752686e-01 3.3758398890495300e-01</leafValues></_>
    <_>
      <internalNodes>
        0 -1 104948 -1.3361106626689434e-02</internalNodes>
      <leafValues>
        4.9805578589439392e-01 -5.5558758974075317e-01</leafValues></_>
    <_>
      <internalNodes>
        0 -1 86130 5.9301140718162060e-03</internalNodes>
      <leafValues>
        3.2477489113807678e-01 -8.4818559885025024e-01</leafValues></_></weakClassifiers></stage7>
</opencv_storage>
