<?xml version="1.0"?>
<opencv_storage>
<stage12>
  <maxWeakCount>10</maxWeakCount>
  <stageThreshold>-1.9429755210876465e+00</stageThreshold>
  <weakClassifiers>
    <_>
      <internalNodes>
        0 -1 136815 1.2743283063173294e-02</internalNodes>
      <leafValues>
        -7.0996731519699097e-01 3.4871795773506165e-01</leafValues></_>
    <_>
      <internalNodes>
        0 -1 129634 3.8271518424153328e-03</internalNodes>
      <leafValues>
        -6.3714098930358887e-01 2.0692841708660126e-01</leafValues></_>
    <_>
      <internalNodes>
        0 -1 58583 -6.2399930320680141e-03</internalNodes>
      <leafValues>
        3.2186189293861389e-01 -5.2707511186599731e-01</leafValues></_>
    <_>
      <internalNodes>
        0 -1 141914 8.3159087225794792e-03</internalNodes>
      <leafValues>
        -2.1318444609642029e-01 7.6688510179519653e-01</leafValues></_>
    <_>
      <internalNodes>
        0 -1 97470 1.0441287420690060e-02</internalNodes>
      <leafValues>
        -5.6418520212173462e-01 2.9272615909576416e-01</leafValues></_>
    <_>
      <internalNodes>
        0 -1 108892 -4.8556057736277580e-03</internalNodes>
      <leafValues>
        2.2093057632446289e-01 -7.6906085014343262e-01</leafValues></_>
    <_>
      <internalNodes>
        0 -1 88749 2.7633411809802055e-02</internalNodes>
      <leafValues>
        -3.0129989981651306e-01 6.3089132308959961e-01</leafValues></_>
    <_>
      <internalNodes>
        0 -1 99053 -1.0395006276667118e-02</internalNodes>
      <leafValues>
        6.7828541994094849e-01 -2.1183367073535919e-01</leafValues></_>
    <_>
      <internalNodes>
        0 -1 132166 3.5484130494296551e-03</internalNodes>
      <leafValues>
        -4.7219544649124146e-01 3.5197415947914124e-01</leafValues></_>
    <_>
      <internalNodes>
        0 -1 131231 8.2588158547878265e-03</internalNodes>
      <leafValues>
        -2.0013067126274109e-01 7.1804386377334595e-01</leafValues></_></weakClassifiers></stage12>
</opencv_storage>
