<?xml version="1.0"?>
<opencv_storage>
<stage10>
  <maxWeakCount>5</maxWeakCount>
  <stageThreshold>-1.2202875614166260e+00</stageThreshold>
  <weakClassifiers>
    <_>
      <internalNodes>
        0 -1 100028 1.9008751958608627e-02</internalNodes>
      <leafValues>
        -7.3612987995147705e-01 4.9482402205467224e-01</leafValues></_>
    <_>
      <internalNodes>
        0 -1 76731 -1.2405691668391228e-02</internalNodes>
      <leafValues>
        -8.9880967140197754e-01 2.4140153825283051e-01</leafValues></_>
    <_>
      <internalNodes>
        0 -1 86153 1.9494669977575541e-03</internalNodes>
      <leafValues>
        -5.6109887361526489e-01 4.9015420675277710e-01</leafValues></_>
    <_>
      <internalNodes>
        0 -1 105405 7.0207566022872925e-03</internalNodes>
      <leafValues>
        -3.9475461840629578e-01 5.8645164966583252e-01</leafValues></_>
    <_>
      <internalNodes>
        0 -1 31666 2.1803382784128189e-02</internalNodes>
      <leafValues>
        3.1925246119499207e-01 -9.8066258430480957e-01</leafValues></_></weakClassifiers></stage10>
</opencv_storage>
