<?xml version="1.0"?>
<opencv_storage>
<stage15>
  <maxWeakCount>9</maxWeakCount>
  <stageThreshold>-1.6094535589218140e+00</stageThreshold>
  <weakClassifiers>
    <_>
      <internalNodes>
        0 -1 92588 -1.6813270747661591e-02</internalNodes>
      <leafValues>
        3.6338028311729431e-01 -6.9714057445526123e-01</leafValues></_>
    <_>
      <internalNodes>
        0 -1 122635 2.4835161864757538e-02</internalNodes>
      <leafValues>
        -5.4539924860000610e-01 2.0060509443283081e-01</leafValues></_>
    <_>
      <internalNodes>
        0 -1 66703 -5.9047695249319077e-03</internalNodes>
      <leafValues>
        5.0932991504669189e-01 -2.9442322254180908e-01</leafValues></_>
    <_>
      <internalNodes>
        0 -1 32868 -6.5029105171561241e-03</internalNodes>
      <leafValues>
        -6.9764435291290283e-01 1.9102285802364349e-01</leafValues></_>
    <_>
      <internalNodes>
        0 -1 153700 8.3338432013988495e-03</internalNodes>
      <leafValues>
        1.2097448855638504e-01 -9.5456075668334961e-01</leafValues></_>
    <_>
      <internalNodes>
        0 -1 146065 1.9901349151041359e-04</internalNodes>
      <leafValues>
        -6.6858494281768799e-01 1.7081169784069061e-01</leafValues></_>
    <_>
      <internalNodes>
        0 -1 94511 7.8860428184270859e-03</internalNodes>
      <leafValues>
        -6.4734619855880737e-01 1.7783311009407043e-01</leafValues></_>
    <_>
      <internalNodes>
        0 -1 76070 2.9487051069736481e-02</internalNodes>
      <leafValues>
        1.3933511078357697e-01 -8.1466013193130493e-01</leafValues></_>
    <_>
      <internalNodes>
        0 -1 89276 1.1291248723864555e-02</internalNodes>
      <leafValues>
        8.1527464091777802e-02 -9.6547883749008179e-01</leafValues></_></weakClassifiers></stage15>
</opencv_storage>
