<?xml version="1.0"?>
<opencv_storage>
<stage6>
  <maxWeakCount>5</maxWeakCount>
  <stageThreshold>-1.3251622915267944e+00</stageThreshold>
  <weakClassifiers>
    <_>
      <internalNodes>
        0 -1 88750 6.7305371165275574e-02</internalNodes>
      <leafValues>
        -7.5642645359039307e-01 4.1505375504493713e-01</leafValues></_>
    <_>
      <internalNodes>
        0 -1 82740 6.2158875167369843e-02</internalNodes>
      <leafValues>
        -6.1731535196304321e-01 4.4214513897895813e-01</leafValues></_>
    <_>
      <internalNodes>
        0 -1 43125 5.2082026377320290e-03</internalNodes>
      <leafValues>
        -7.4246287345886230e-01 3.6172071099281311e-01</leafValues></_>
    <_>
      <internalNodes>
        0 -1 107043 -7.2740744799375534e-03</internalNodes>
      <leafValues>
        5.5643296241760254e-01 -3.4191989898681641e-01</leafValues></_>
    <_>
      <internalNodes>
        0 -1 138658 -1.7145036254078150e-03</internalNodes>
      <leafValues>
        2.3460945487022400e-01 -8.2612586021423340e-01</leafValues></_></weakClassifiers></stage6>
</opencv_storage>
