<?xml version="1.0"?>
<opencv_storage>
<stage6>
  <maxWeakCount>5</maxWeakCount>
  <stageThreshold>-1.9330685138702393e+00</stageThreshold>
  <weakClassifiers>
    <_>
      <internalNodes>
        0 -1 43780 2.2231277078390121e-02</internalNodes>
      <leafValues>
        -7.8248971700668335e-01 5.9118235111236572e-01</leafValues></_>
    <_>
      <internalNodes>
        0 -1 82674 3.6267194896936417e-02</internalNodes>
      <leafValues>
        -7.1915221214294434e-01 5.4054355621337891e-01</leafValues></_>
    <_>
      <internalNodes>
        0 -1 105408 3.0736965127289295e-03</internalNodes>
      <leafValues>
        -6.0023468732833862e-01 5.9029299020767212e-01</leafValues></_>
    <_>
      <internalNodes>
        0 -1 97342 4.5633889734745026e-02</internalNodes>
      <leafValues>
        -5.2369868755340576e-01 5.7465255260467529e-01</leafValues></_>
    <_>
      <internalNodes>
        0 -1 140512 -1.0367359966039658e-02</internalNodes>
      <leafValues>
        4.8283481597900391e-01 -5.6718897819519043e-01</leafValues></_></weakClassifiers></stage6>
</opencv_storage>
