<?xml version="1.0"?>
<opencv_storage>
<stage18>
  <maxWeakCount>6</maxWeakCount>
  <stageThreshold>-1.5891079902648926e+00</stageThreshold>
  <weakClassifiers>
    <_>
      <internalNodes>
        0 -1 104020 6.9394949823617935e-03</internalNodes>
      <leafValues>
        -6.6176468133926392e-01 7.0212763547897339e-01</leafValues></_>
    <_>
      <internalNodes>
        0 -1 153268 6.4989677630364895e-03</internalNodes>
      <leafValues>
        -6.9775700569152832e-01 3.0811309814453125e-01</leafValues></_>
    <_>
      <internalNodes>
        0 -1 84637 -2.5114212185144424e-02</internalNodes>
      <leafValues>
        4.8781168460845947e-01 -4.8518779873847961e-01</leafValues></_>
    <_>
      <internalNodes>
        0 -1 68665 -1.1587498709559441e-02</internalNodes>
      <leafValues>
        3.5120233893394470e-01 -6.8357217311859131e-01</leafValues></_>
    <_>
      <internalNodes>
        0 -1 136657 4.4459141790866852e-03</internalNodes>
      <leafValues>
        -6.9759541749954224e-01 3.3477994799613953e-01</leafValues></_>
    <_>
      <internalNodes>
        0 -1 81708 2.2233851253986359e-02</internalNodes>
      <leafValues>
        2.7287676930427551e-01 -8.3429718017578125e-01</leafValues></_></weakClassifiers></stage18>
</opencv_storage>
