<?xml version="1.0"?>
<opencv_storage>
<stage16>
  <maxWeakCount>7</maxWeakCount>
  <stageThreshold>-1.2973206043243408e+00</stageThreshold>
  <weakClassifiers>
    <_>
      <internalNodes>
        0 -1 125070 -1.0456691496074200e-02</internalNodes>
      <leafValues>
        7.7343750000000000e-01 -6.1407625675201416e-01</leafValues></_>
    <_>
      <internalNodes>
        0 -1 33518 2.6441503316164017e-02</internalNodes>
      <leafValues>
        -7.2746741771697998e-01 2.9250946640968323e-01</leafValues></_>
    <_>
      <internalNodes>
        0 -1 30980 4.3969536200165749e-03</internalNodes>
      <leafValues>
        3.0173629522323608e-01 -8.1669002771377563e-01</leafValues></_>
    <_>
      <internalNodes>
        0 -1 103113 -7.5408886186778545e-03</internalNodes>
      <leafValues>
        -8.3006161451339722e-01 2.7413979172706604e-01</leafValues></_>
    <_>
      <internalNodes>
        0 -1 111675 -2.1253742277622223e-02</internalNodes>
      <leafValues>
        2.2488583624362946e-01 -8.1323742866516113e-01</leafValues></_>
    <_>
      <internalNodes>
        0 -1 116287 -2.4702753871679306e-02</internalNodes>
      <leafValues>
        -8.5962593555450439e-01 1.8171581625938416e-01</leafValues></_>
    <_>
      <internalNodes>
        0 -1 119278 -1.1215796694159508e-02</internalNodes>
      <leafValues>
        -9.1688984632492065e-01 2.2225417196750641e-01</leafValues></_></weakClassifiers></stage16>
</opencv_storage>
