<?xml version="1.0"?>
<opencv_storage>
<stage2>
  <maxWeakCount>5</maxWeakCount>
  <stageThreshold>-1.2152913808822632e+00</stageThreshold>
  <weakClassifiers>
    <_>
      <internalNodes>
        0 -1 33871 1.8533645197749138e-02</internalNodes>
      <leafValues>
        -8.1215471029281616e-01 6.3711339235305786e-01</leafValues></_>
    <_>
      <internalNodes>
        0 -1 91700 4.0886342525482178e-02</internalNodes>
      <leafValues>
        -7.4833470582962036e-01 6.2014484405517578e-01</leafValues></_>
    <_>
      <internalNodes>
        0 -1 150017 -2.4816093966364861e-02</internalNodes>
      <leafValues>
        6.4731472730636597e-01 -5.9647786617279053e-01</leafValues></_>
    <_>
      <internalNodes>
        0 -1 96297 5.9447325766086578e-03</internalNodes>
      <leafValues>
        -7.3773729801177979e-01 4.9887633323669434e-01</leafValues></_>
    <_>
      <internalNodes>
        0 -1 129467 -3.5223066806793213e-03</internalNodes>
      <leafValues>
        4.4279950857162476e-01 -7.4848693609237671e-01</leafValues></_></weakClassifiers></stage2>
</opencv_storage>
