<?xml version="1.0"?>
<opencv_storage>
<stage15>
  <maxWeakCount>6</maxWeakCount>
  <stageThreshold>-1.5615824460983276e+00</stageThreshold>
  <weakClassifiers>
    <_>
      <internalNodes>
        0 -1 94769 -1.9530031830072403e-02</internalNodes>
      <leafValues>
        7.2727274894714355e-01 -5.9627687931060791e-01</leafValues></_>
    <_>
      <internalNodes>
        0 -1 53037 1.9589979201555252e-02</internalNodes>
      <leafValues>
        -8.6541652679443359e-01 2.8827491402626038e-01</leafValues></_>
    <_>
      <internalNodes>
        0 -1 83373 6.8858474493026733e-02</internalNodes>
      <leafValues>
        -3.7834304571151733e-01 6.5895116329193115e-01</leafValues></_>
    <_>
      <internalNodes>
        0 -1 150577 -2.3060506209731102e-03</internalNodes>
      <leafValues>
        3.7169432640075684e-01 -6.3128769397735596e-01</leafValues></_>
    <_>
      <internalNodes>
        0 -1 44908 -3.7867598235607147e-02</internalNodes>
      <leafValues>
        -8.1737750768661499e-01 3.3019745349884033e-01</leafValues></_>
    <_>
      <internalNodes>
        0 -1 100315 -1.3520726934075356e-02</internalNodes>
      <leafValues>
        6.2114685773849487e-01 -4.2955419421195984e-01</leafValues></_></weakClassifiers></stage15>
</opencv_storage>
