<?xml version="1.0"?>
<opencv_storage>
<stage1>
  <maxWeakCount>5</maxWeakCount>
  <stageThreshold>-1.4855527877807617e+00</stageThreshold>
  <weakClassifiers>
    <_>
      <internalNodes>
        0 -1 8254 1.9016113132238388e-02</internalNodes>
      <leafValues>
        -8.7288886308670044e-01 6.1564624309539795e-01</leafValues></_>
    <_>
      <internalNodes>
        0 -1 2502 1.6739591956138611e-02</internalNodes>
      <leafValues>
        -8.0749017000198364e-01 6.2272828817367554e-01</leafValues></_>
    <_>
      <internalNodes>
        0 -1 36753 -1.9455254077911377e-02</internalNodes>
      <leafValues>
        4.9377587437629700e-01 -7.9625475406646729e-01</leafValues></_>
    <_>
      <internalNodes>
        0 -1 63060 1.4580584131181240e-02</internalNodes>
      <leafValues>
        -7.3618108034133911e-01 5.1724529266357422e-01</leafValues></_>
    <_>
      <internalNodes>
        0 -1 143401 -2.2888439707458019e-03</internalNodes>
      <leafValues>
        4.7383570671081543e-01 -7.4025666713714600e-01</leafValues></_></weakClassifiers></stage1>
</opencv_storage>
