<?xml version="1.0"?>
<opencv_storage>
<stage7>
  <maxWeakCount>5</maxWeakCount>
  <stageThreshold>-1.8062528371810913e+00</stageThreshold>
  <weakClassifiers>
    <_>
      <internalNodes>
        0 -1 160575 1.8192086368799210e-02</internalNodes>
      <leafValues>
        -8.3009439706802368e-01 5.2941179275512695e-01</leafValues></_>
    <_>
      <internalNodes>
        0 -1 68547 2.4412504862993956e-03</internalNodes>
      <leafValues>
        -6.4768987894058228e-01 6.5881210565567017e-01</leafValues></_>
    <_>
      <internalNodes>
        0 -1 146512 5.9977043420076370e-03</internalNodes>
      <leafValues>
        -8.8928741216659546e-01 3.5231292247772217e-01</leafValues></_>
    <_>
      <internalNodes>
        0 -1 100738 -1.1342547368258238e-03</internalNodes>
      <leafValues>
        -9.5723247528076172e-01 2.7372047305107117e-01</leafValues></_>
    <_>
      <internalNodes>
        0 -1 78719 -6.9849090650677681e-03</internalNodes>
      <leafValues>
        2.8709840774536133e-01 -9.2643123865127563e-01</leafValues></_></weakClassifiers></stage7>
</opencv_storage>
