<?xml version="1.0"?>
<opencv_storage>
<stage12>
  <maxWeakCount>6</maxWeakCount>
  <stageThreshold>-1.7096279859542847e+00</stageThreshold>
  <weakClassifiers>
    <_>
      <internalNodes>
        0 -1 45592 4.0815342217683792e-03</internalNodes>
      <leafValues>
        -8.3089065551757813e-01 2.8455284237861633e-01</leafValues></_>
    <_>
      <internalNodes>
        0 -1 87538 -1.7718260642141104e-03</internalNodes>
      <leafValues>
        3.2771420478820801e-01 -7.0912694931030273e-01</leafValues></_>
    <_>
      <internalNodes>
        0 -1 120806 -2.0209886133670807e-03</internalNodes>
      <leafValues>
        2.7456402778625488e-01 -8.5775035619735718e-01</leafValues></_>
    <_>
      <internalNodes>
        0 -1 133308 -8.7749143131077290e-04</internalNodes>
      <leafValues>
        -9.6668678522109985e-01 1.8449303507804871e-01</leafValues></_>
    <_>
      <internalNodes>
        0 -1 124938 7.7759623527526855e-03</internalNodes>
      <leafValues>
        -7.7797466516494751e-01 2.4885639548301697e-01</leafValues></_>
    <_>
      <internalNodes>
        0 -1 131415 -2.2558637429028749e-03</internalNodes>
      <leafValues>
        2.6364585757255554e-01 -8.5798752307891846e-01</leafValues></_></weakClassifiers></stage12>
</opencv_storage>
