<?xml version="1.0"?>
<opencv_storage>
<stage14>
  <maxWeakCount>6</maxWeakCount>
  <stageThreshold>-2.0607893466949463e+00</stageThreshold>
  <weakClassifiers>
    <_>
      <internalNodes>
        0 -1 137394 1.7646649852395058e-02</internalNodes>
      <leafValues>
        -8.0890333652496338e-01 4.8314607143402100e-01</leafValues></_>
    <_>
      <internalNodes>
        0 -1 103220 -4.3882699683308601e-03</internalNodes>
      <leafValues>
        3.5426491498947144e-01 -7.0251482725143433e-01</leafValues></_>
    <_>
      <internalNodes>
        0 -1 118995 -9.3825552612543106e-03</internalNodes>
      <leafValues>
        7.7286255359649658e-01 -4.1514801979064941e-01</leafValues></_>
    <_>
      <internalNodes>
        0 -1 89209 -9.5383943989872932e-03</internalNodes>
      <leafValues>
        4.0380865335464478e-01 -7.3641490936279297e-01</leafValues></_>
    <_>
      <internalNodes>
        0 -1 76976 -4.6661635860800743e-03</internalNodes>
      <leafValues>
        -8.2150012254714966e-01 3.0828064680099487e-01</leafValues></_>
    <_>
      <internalNodes>
        0 -1 52420 -1.7700062599033117e-03</internalNodes>
      <leafValues>
        2.8346824645996094e-01 -9.2451471090316772e-01</leafValues></_></weakClassifiers></stage14>
</opencv_storage>
