<?xml version="1.0"?>
<opencv_storage>
<stage0>
  <maxWeakCount>5</maxWeakCount>
  <stageThreshold>-1.6330884695053101e+00</stageThreshold>
  <weakClassifiers>
    <_>
      <internalNodes>
        0 -1 100664 1.7513381317257881e-02</internalNodes>
      <leafValues>
        -8.3803385496139526e-01 4.2292490601539612e-01</leafValues></_>
    <_>
      <internalNodes>
        0 -1 86088 -3.8277839776128531e-03</internalNodes>
      <leafValues>
        2.7157783508300781e-01 -8.2297170162200928e-01</leafValues></_>
    <_>
      <internalNodes>
        0 -1 106038 -3.1368508934974670e-02</internalNodes>
      <leafValues>
        3.9705693721771240e-01 -7.3382133245468140e-01</leafValues></_>
    <_>
      <internalNodes>
        0 -1 96865 1.5079339500516653e-03</internalNodes>
      <leafValues>
        -6.5776115655899048e-01 3.3977618813514709e-01</leafValues></_>
    <_>
      <internalNodes>
        0 -1 103286 2.1583219058811665e-03</internalNodes>
      <leafValues>
        -5.7370722293853760e-01 4.2196229100227356e-01</leafValues></_></weakClassifiers></stage0>
</opencv_storage>
