<?xml version="1.0"?>
<opencv_storage>
<stage14>
  <maxWeakCount>6</maxWeakCount>
  <stageThreshold>-1.6255713701248169e+00</stageThreshold>
  <weakClassifiers>
    <_>
      <internalNodes>
        0 -1 12388 5.2871588617563248e-02</internalNodes>
      <leafValues>
        -8.0262142419815063e-01 4.9922719597816467e-01</leafValues></_>
    <_>
      <internalNodes>
        0 -1 86085 7.6409797184169292e-03</internalNodes>
      <leafValues>
        -6.7044788599014282e-01 3.3948642015457153e-01</leafValues></_>
    <_>
      <internalNodes>
        0 -1 88283 2.6542143896222115e-03</internalNodes>
      <leafValues>
        3.0456930398941040e-01 -6.5174919366836548e-01</leafValues></_>
    <_>
      <internalNodes>
        0 -1 55279 -2.9467202723026276e-02</internalNodes>
      <leafValues>
        -6.4169436693191528e-01 2.3689553141593933e-01</leafValues></_>
    <_>
      <internalNodes>
        0 -1 6788 1.6092184931039810e-02</internalNodes>
      <leafValues>
        1.6833411157131195e-01 -9.2847102880477905e-01</leafValues></_>
    <_>
      <internalNodes>
        0 -1 94831 -5.3971196757629514e-04</internalNodes>
      <leafValues>
        -8.6662501096725464e-01 9.4017498195171356e-02</leafValues></_></weakClassifiers></stage14>
</opencv_storage>
