<?xml version="1.0"?>
<opencv_storage>
<stage19>
  <maxWeakCount>13</maxWeakCount>
  <stageThreshold>-1.7382678985595703e+00</stageThreshold>
  <weakClassifiers>
    <_>
      <internalNodes>
        0 -1 117477 4.2029693722724915e-02</internalNodes>
      <leafValues>
        -6.2038546800613403e-01 7.7777779102325439e-01</leafValues></_>
    <_>
      <internalNodes>
        0 -1 142832 -4.6403305605053902e-03</internalNodes>
      <leafValues>
        2.8043806552886963e-01 -4.7873753309249878e-01</leafValues></_>
    <_>
      <internalNodes>
        0 -1 78711 -3.4900996834039688e-03</internalNodes>
      <leafValues>
        -7.1035206317901611e-01 1.9089631736278534e-01</leafValues></_>
    <_>
      <internalNodes>
        0 -1 94281 -7.9623318742960691e-04</internalNodes>
      <leafValues>
        3.0760064721107483e-01 -4.2705518007278442e-01</leafValues></_>
    <_>
      <internalNodes>
        0 -1 66843 1.4658309519290924e-03</internalNodes>
      <leafValues>
        -5.3376537561416626e-01 2.1415077149868011e-01</leafValues></_>
    <_>
      <internalNodes>
        0 -1 56440 3.0649624764919281e-02</internalNodes>
      <leafValues>
        8.9190579950809479e-02 -9.5324903726577759e-01</leafValues></_>
    <_>
      <internalNodes>
        0 -1 42751 -4.3698647059500217e-03</internalNodes>
      <leafValues>
        -7.4692523479461670e-01 9.5888465642929077e-02</leafValues></_>
    <_>
      <internalNodes>
        0 -1 87684 5.4833583533763885e-02</internalNodes>
      <leafValues>
        1.0476698726415634e-01 -9.2983180284500122e-01</leafValues></_>
    <_>
      <internalNodes>
        0 -1 56348 2.4397633969783783e-03</internalNodes>
      <leafValues>
        1.0732559859752655e-01 -7.6723831892013550e-01</leafValues></_>
    <_>
      <internalNodes>
        0 -1 86957 1.2241923250257969e-03</internalNodes>
      <leafValues>
        -3.2723131775856018e-01 3.0015009641647339e-01</leafValues></_>
    <_>
      <internalNodes>
        0 -1 109265 -6.5549919381737709e-03</internalNodes>
      <leafValues>
        4.3856495618820190e-01 -2.3941294848918915e-01</leafValues></_>
    <_>
      <internalNodes>
        0 -1 94841 -5.7111056521534920e-03</internalNodes>
      <leafValues>
        -8.9222103357315063e-01 1.2770587205886841e-01</leafValues></_>
    <_>
      <internalNodes>
        0 -1 48828 1.9803859293460846e-02</internalNodes>
      <leafValues>
        -1.8282456696033478e-01 6.8611246347427368e-01</leafValues></_></weakClassifiers></stage19>
</opencv_storage>
