<?xml version="1.0"?>
<opencv_storage>
<stage9>
  <maxWeakCount>8</maxWeakCount>
  <stageThreshold>-1.6372700929641724e+00</stageThreshold>
  <weakClassifiers>
    <_>
      <internalNodes>
        0 -1 45687 -1.6007181257009506e-02</internalNodes>
      <leafValues>
        1.5853658318519592e-01 -7.2069633007049561e-01</leafValues></_>
    <_>
      <internalNodes>
        0 -1 103721 3.6562704481184483e-03</internalNodes>
      <leafValues>
        -6.5001142024993896e-01 2.7966260910034180e-01</leafValues></_>
    <_>
      <internalNodes>
        0 -1 77242 -1.2145065702497959e-02</internalNodes>
      <leafValues>
        -8.2115113735198975e-01 2.1169868111610413e-01</leafValues></_>
    <_>
      <internalNodes>
        0 -1 44757 8.5820201784372330e-03</internalNodes>
      <leafValues>
        1.9598884880542755e-01 -8.4965288639068604e-01</leafValues></_>
    <_>
      <internalNodes>
        0 -1 86181 -7.7693886123597622e-03</internalNodes>
      <leafValues>
        3.6742809414863586e-01 -4.3301418423652649e-01</leafValues></_>
    <_>
      <internalNodes>
        0 -1 79984 -1.0008530691266060e-02</internalNodes>
      <leafValues>
        3.7645921111106873e-01 -3.8452276587486267e-01</leafValues></_>
    <_>
      <internalNodes>
        0 -1 56394 2.8014194220304489e-02</internalNodes>
      <leafValues>
        1.7432601749897003e-01 -8.2259297370910645e-01</leafValues></_>
    <_>
      <internalNodes>
        0 -1 83181 8.2284072414040565e-04</internalNodes>
      <leafValues>
        -6.2178987264633179e-01 2.0136861503124237e-01</leafValues></_></weakClassifiers></stage9>
</opencv_storage>
