<?xml version="1.0"?>
<opencv_storage>
<stage8>
  <maxWeakCount>5</maxWeakCount>
  <stageThreshold>-1.9026422500610352e+00</stageThreshold>
  <weakClassifiers>
    <_>
      <internalNodes>
        0 -1 125765 -6.1850789934396744e-03</internalNodes>
      <leafValues>
        7.4703556299209595e-01 -7.8135281801223755e-01</leafValues></_>
    <_>
      <internalNodes>
        0 -1 94817 1.3943490339443088e-03</internalNodes>
      <leafValues>
        -6.3190460205078125e-01 7.3499345779418945e-01</leafValues></_>
    <_>
      <internalNodes>
        0 -1 126430 3.7117002648301423e-04</internalNodes>
      <leafValues>
        -7.4068433046340942e-01 4.0015846490859985e-01</leafValues></_>
    <_>
      <internalNodes>
        0 -1 120496 5.3641432896256447e-03</internalNodes>
      <leafValues>
        -4.6974647045135498e-01 6.1249476671218872e-01</leafValues></_>
    <_>
      <internalNodes>
        0 -1 130296 -2.8409727383404970e-03</internalNodes>
      <leafValues>
        7.2104597091674805e-01 -3.5474783182144165e-01</leafValues></_></weakClassifiers></stage8>
</opencv_storage>
