<?xml version="1.0"?>
<opencv_storage>
<stage1>
  <maxWeakCount>5</maxWeakCount>
  <stageThreshold>-1.4016823768615723e+00</stageThreshold>
  <weakClassifiers>
    <_>
      <internalNodes>
        0 -1 107666 4.3488159775733948e-02</internalNodes>
      <leafValues>
        -7.6577228307723999e-01 7.3084884881973267e-01</leafValues></_>
    <_>
      <internalNodes>
        0 -1 126397 -4.1037620976567268e-03</internalNodes>
      <leafValues>
        5.6572949886322021e-01 -6.8440967798233032e-01</leafValues></_>
    <_>
      <internalNodes>
        0 -1 97310 -3.8185976445674896e-03</internalNodes>
      <leafValues>
        6.0711467266082764e-01 -5.3192996978759766e-01</leafValues></_>
    <_>
      <internalNodes>
        0 -1 92813 2.3428611457347870e-02</internalNodes>
      <leafValues>
        3.1240069866180420e-01 -8.2555150985717773e-01</leafValues></_>
    <_>
      <internalNodes>
        0 -1 111212 3.6758121568709612e-03</internalNodes>
      <leafValues>
        2.6802882552146912e-01 -9.1798681020736694e-01</leafValues></_></weakClassifiers></stage1>
</opencv_storage>
