<?xml version="1.0"?>
<opencv_storage>
<stage16>
  <maxWeakCount>10</maxWeakCount>
  <stageThreshold>-1.3620128631591797e+00</stageThreshold>
  <weakClassifiers>
    <_>
      <internalNodes>
        0 -1 109833 -5.7265502400696278e-03</internalNodes>
      <leafValues>
        1.7922078073024750e-01 -7.6770538091659546e-01</leafValues></_>
    <_>
      <internalNodes>
        0 -1 86999 1.6864147037267685e-02</internalNodes>
      <leafValues>
        -5.4427719116210938e-01 2.2486922144889832e-01</leafValues></_>
    <_>
      <internalNodes>
        0 -1 87990 -4.9072373658418655e-03</internalNodes>
      <leafValues>
        -8.0672067403793335e-01 1.4588865637779236e-01</leafValues></_>
    <_>
      <internalNodes>
        0 -1 32463 2.9259058646857738e-03</internalNodes>
      <leafValues>
        -4.7982829809188843e-01 3.3540794253349304e-01</leafValues></_>
    <_>
      <internalNodes>
        0 -1 119496 -1.7929829191416502e-03</internalNodes>
      <leafValues>
        -6.7283171415328979e-01 1.8218104541301727e-01</leafValues></_>
    <_>
      <internalNodes>
        0 -1 105420 -4.2646024376153946e-03</internalNodes>
      <leafValues>
        1.6298674046993256e-01 -5.9839820861816406e-01</leafValues></_>
    <_>
      <internalNodes>
        0 -1 109276 -1.3236391823738813e-03</internalNodes>
      <leafValues>
        -8.0175387859344482e-01 1.3319186866283417e-01</leafValues></_>
    <_>
      <internalNodes>
        0 -1 86196 1.4695136807858944e-02</internalNodes>
      <leafValues>
        9.8475307226181030e-02 -8.4335082769393921e-01</leafValues></_>
    <_>
      <internalNodes>
        0 -1 157925 2.7384785935282707e-03</internalNodes>
      <leafValues>
        1.6323788464069366e-01 -5.3016340732574463e-01</leafValues></_>
    <_>
      <internalNodes>
        0 -1 52266 -2.0976837724447250e-02</internalNodes>
      <leafValues>
        4.4399246573448181e-01 -2.7270054817199707e-01</leafValues></_></weakClassifiers></stage16>
</opencv_storage>
