<?xml version="1.0"?>
<opencv_storage>
<stage10>
  <maxWeakCount>10</maxWeakCount>
  <stageThreshold>-1.7484714984893799e+00</stageThreshold>
  <weakClassifiers>
    <_>
      <internalNodes>
        0 -1 92090 3.1972207129001617e-02</internalNodes>
      <leafValues>
        -8.5178053379058838e-01 9.4582978636026382e-03</leafValues></_>
    <_>
      <internalNodes>
        0 -1 91748 7.0160865783691406e-02</internalNodes>
      <leafValues>
        -3.7823852896690369e-01 6.0812211036682129e-01</leafValues></_>
    <_>
      <internalNodes>
        0 -1 103349 8.6977099999785423e-03</internalNodes>
      <leafValues>
        2.2085705399513245e-01 -6.6162002086639404e-01</leafValues></_>
    <_>
      <internalNodes>
        0 -1 77231 -1.6450695693492889e-03</internalNodes>
      <leafValues>
        2.3976267874240875e-01 -5.9091365337371826e-01</leafValues></_>
    <_>
      <internalNodes>
        0 -1 65854 1.4865478733554482e-03</internalNodes>
      <leafValues>
        -6.7894095182418823e-01 2.0538014173507690e-01</leafValues></_>
    <_>
      <internalNodes>
        0 -1 56884 -4.8199447337538004e-04</internalNodes>
      <leafValues>
        -6.3780069351196289e-01 2.9962238669395447e-01</leafValues></_>
    <_>
      <internalNodes>
        0 -1 97015 -1.2691164389252663e-02</internalNodes>
      <leafValues>
        6.1548179388046265e-01 -2.7356088161468506e-01</leafValues></_>
    <_>
      <internalNodes>
        0 -1 76674 -4.2084855958819389e-03</internalNodes>
      <leafValues>
        2.4581620097160339e-01 -5.2625143527984619e-01</leafValues></_>
    <_>
      <internalNodes>
        0 -1 76160 -2.5990989059209824e-02</internalNodes>
      <leafValues>
        -7.5772714614868164e-01 1.4867532253265381e-01</leafValues></_>
    <_>
      <internalNodes>
        0 -1 21 1.3252561911940575e-03</internalNodes>
      <leafValues>
        1.6179291903972626e-01 -6.7574471235275269e-01</leafValues></_></weakClassifiers></stage10>
</opencv_storage>
