<?xml version="1.0"?>
<opencv_storage>
<stage9>
  <maxWeakCount>9</maxWeakCount>
  <stageThreshold>-2.3425049781799316e+00</stageThreshold>
  <weakClassifiers>
    <_>
      <internalNodes>
        0 -1 146650 -1.4586334116756916e-02</internalNodes>
      <leafValues>
        3.5526314377784729e-01 -8.3451819419860840e-01</leafValues></_>
    <_>
      <internalNodes>
        0 -1 52957 -1.4758029021322727e-02</internalNodes>
      <leafValues>
        3.4229511022567749e-01 -5.8943229913711548e-01</leafValues></_>
    <_>
      <internalNodes>
        0 -1 149809 5.1072230562567711e-03</internalNodes>
      <leafValues>
        -6.6788792610168457e-01 2.8139343857765198e-01</leafValues></_>
    <_>
      <internalNodes>
        0 -1 78768 3.8156844675540924e-03</internalNodes>
      <leafValues>
        -8.6584484577178955e-01 1.9509761035442352e-01</leafValues></_>
    <_>
      <internalNodes>
        0 -1 61870 -2.5458939373493195e-02</internalNodes>
      <leafValues>
        -8.5195106267929077e-01 2.1543766558170319e-01</leafValues></_>
    <_>
      <internalNodes>
        0 -1 100873 -1.5231473371386528e-03</internalNodes>
      <leafValues>
        2.0039963722229004e-01 -8.8603812456130981e-01</leafValues></_>
    <_>
      <internalNodes>
        0 -1 97602 1.7722897231578827e-02</internalNodes>
      <leafValues>
        -3.4501224756240845e-01 5.1139426231384277e-01</leafValues></_>
    <_>
      <internalNodes>
        0 -1 35011 -6.7174755968153477e-03</internalNodes>
      <leafValues>
        3.0139848589897156e-01 -5.6896978616714478e-01</leafValues></_>
    <_>
      <internalNodes>
        0 -1 64110 2.0438487990759313e-04</internalNodes>
      <leafValues>
        1.7048794031143188e-01 -9.1352105140686035e-01</leafValues></_></weakClassifiers></stage9>
</opencv_storage>
