<?xml version="1.0"?>
<opencv_storage>
<stage13>
  <maxWeakCount>7</maxWeakCount>
  <stageThreshold>-1.7507869005203247e+00</stageThreshold>
  <weakClassifiers>
    <_>
      <internalNodes>
        0 -1 62860 -9.4332713633775711e-03</internalNodes>
      <leafValues>
        -1.0231023281812668e-01 -8.5174298286437988e-01</leafValues></_>
    <_>
      <internalNodes>
        0 -1 41702 8.4347883239388466e-03</internalNodes>
      <leafValues>
        -7.3893982172012329e-01 4.3129615485668182e-02</leafValues></_>
    <_>
      <internalNodes>
        0 -1 141089 1.3373256660997868e-03</internalNodes>
      <leafValues>
        -4.6280750632286072e-01 3.1379544734954834e-01</leafValues></_>
    <_>
      <internalNodes>
        0 -1 125565 3.1211460009217262e-03</internalNodes>
      <leafValues>
        1.6685846447944641e-01 -8.5455977916717529e-01</leafValues></_>
    <_>
      <internalNodes>
        0 -1 113707 2.8808224946260452e-02</internalNodes>
      <leafValues>
        -6.3011521100997925e-01 2.3915098607540131e-01</leafValues></_>
    <_>
      <internalNodes>
        0 -1 115779 -2.8695691376924515e-02</internalNodes>
      <leafValues>
        -8.9696490764617920e-01 1.3017341494560242e-01</leafValues></_>
    <_>
      <internalNodes>
        0 -1 128251 1.0819505900144577e-02</internalNodes>
      <leafValues>
        1.4657495915889740e-01 -7.4356329441070557e-01</leafValues></_></weakClassifiers></stage13>
</opencv_storage>
