<?xml version="1.0"?>
<opencv_storage>
<stage6>
  <maxWeakCount>7</maxWeakCount>
  <stageThreshold>-2.2693047523498535e+00</stageThreshold>
  <weakClassifiers>
    <_>
      <internalNodes>
        0 -1 88750 8.0142632126808167e-02</internalNodes>
      <leafValues>
        -8.6015671491622925e-01 4.1687980294227600e-01</leafValues></_>
    <_>
      <internalNodes>
        0 -1 18961 3.4455463290214539e-02</internalNodes>
      <leafValues>
        -7.5451439619064331e-01 2.3968470096588135e-01</leafValues></_>
    <_>
      <internalNodes>
        0 -1 120246 -1.2929860502481461e-02</internalNodes>
      <leafValues>
        2.3575185239315033e-01 -8.2245886325836182e-01</leafValues></_>
    <_>
      <internalNodes>
        0 -1 82674 4.0021318942308426e-02</internalNodes>
      <leafValues>
        -5.7777673006057739e-01 4.4784590601921082e-01</leafValues></_>
    <_>
      <internalNodes>
        0 -1 126162 2.5972218718379736e-03</internalNodes>
      <leafValues>
        -6.4748317003250122e-01 3.0949184298515320e-01</leafValues></_>
    <_>
      <internalNodes>
        0 -1 109361 -5.0515416078269482e-03</internalNodes>
      <leafValues>
        2.4122206866741180e-01 -9.0752840042114258e-01</leafValues></_>
    <_>
      <internalNodes>
        0 -1 54198 -3.5458274185657501e-02</internalNodes>
      <leafValues>
        -9.1109836101531982e-01 1.9488817453384399e-01</leafValues></_></weakClassifiers></stage6>
</opencv_storage>
