<?xml version="1.0"?>
<opencv_storage>
<stage2>
  <maxWeakCount>5</maxWeakCount>
  <stageThreshold>-1.4796991348266602e+00</stageThreshold>
  <weakClassifiers>
    <_>
      <internalNodes>
        0 -1 33871 2.4112584069371223e-02</internalNodes>
      <leafValues>
        -8.8954794406890869e-01 4.8225468397140503e-01</leafValues></_>
    <_>
      <internalNodes>
        0 -1 1493 1.9635992124676704e-02</internalNodes>
      <leafValues>
        -8.6958038806915283e-01 3.8917997479438782e-01</leafValues></_>
    <_>
      <internalNodes>
        0 -1 127299 -5.1687955856323242e-03</internalNodes>
      <leafValues>
        3.4874552488327026e-01 -8.7520319223403931e-01</leafValues></_>
    <_>
      <internalNodes>
        0 -1 115218 -1.4009356498718262e-02</internalNodes>
      <leafValues>
        6.8974095582962036e-01 -5.7509458065032959e-01</leafValues></_>
    <_>
      <internalNodes>
        0 -1 45136 1.1432092636823654e-02</internalNodes>
      <leafValues>
        -7.0602947473526001e-01 5.0577831268310547e-01</leafValues></_></weakClassifiers></stage2>
</opencv_storage>
