<?xml version="1.0"?>
<opencv_storage>
<stage7>
  <maxWeakCount>6</maxWeakCount>
  <stageThreshold>-2.2138264179229736e+00</stageThreshold>
  <weakClassifiers>
    <_>
      <internalNodes>
        0 -1 136815 1.5501676127314568e-02</internalNodes>
      <leafValues>
        -8.4213674068450928e-01 3.0484330654144287e-01</leafValues></_>
    <_>
      <internalNodes>
        0 -1 119961 5.2459309808909893e-03</internalNodes>
      <leafValues>
        -7.6956361532211304e-01 1.5390723943710327e-01</leafValues></_>
    <_>
      <internalNodes>
        0 -1 35607 8.3381012082099915e-02</internalNodes>
      <leafValues>
        -6.3546192646026611e-01 3.2352316379547119e-01</leafValues></_>
    <_>
      <internalNodes>
        0 -1 83378 -7.3315352201461792e-03</internalNodes>
      <leafValues>
        2.4429680407047272e-01 -8.4150308370590210e-01</leafValues></_>
    <_>
      <internalNodes>
        0 -1 73843 1.6347048804163933e-03</internalNodes>
      <leafValues>
        -4.0757134556770325e-01 5.2197319269180298e-01</leafValues></_>
    <_>
      <internalNodes>
        0 -1 42934 -4.9860022962093353e-02</internalNodes>
      <leafValues>
        -9.5396137237548828e-01 1.9661045074462891e-01</leafValues></_></weakClassifiers></stage7>
</opencv_storage>
