<?xml version="1.0"?>
<opencv_storage>
<stage15>
  <maxWeakCount>10</maxWeakCount>
  <stageThreshold>-2.0031840801239014e+00</stageThreshold>
  <weakClassifiers>
    <_>
      <internalNodes>
        0 -1 87548 8.0840457230806351e-03</internalNodes>
      <leafValues>
        -8.2180958986282349e-01 1.3725490868091583e-01</leafValues></_>
    <_>
      <internalNodes>
        0 -1 4338 9.8576948046684265e-02</internalNodes>
      <leafValues>
        -5.9386444091796875e-01 1.5062758326530457e-01</leafValues></_>
    <_>
      <internalNodes>
        0 -1 63187 3.7322298157960176e-03</internalNodes>
      <leafValues>
        -5.9198999404907227e-01 2.1765722334384918e-01</leafValues></_>
    <_>
      <internalNodes>
        0 -1 130681 -2.0164325833320618e-02</internalNodes>
      <leafValues>
        -8.3404481410980225e-01 1.3170892000198364e-01</leafValues></_>
    <_>
      <internalNodes>
        0 -1 116775 -2.0644381642341614e-02</internalNodes>
      <leafValues>
        1.9281367957592010e-01 -6.8191164731979370e-01</leafValues></_>
    <_>
      <internalNodes>
        0 -1 136815 9.5752673223614693e-03</internalNodes>
      <leafValues>
        -2.1869668364524841e-01 6.4821285009384155e-01</leafValues></_>
    <_>
      <internalNodes>
        0 -1 90717 1.2905107811093330e-02</internalNodes>
      <leafValues>
        1.5191529691219330e-01 -8.8624191284179688e-01</leafValues></_>
    <_>
      <internalNodes>
        0 -1 125068 4.3148761615157127e-03</internalNodes>
      <leafValues>
        -2.2177107632160187e-01 6.1188131570816040e-01</leafValues></_>
    <_>
      <internalNodes>
        0 -1 1631 -4.5499868690967560e-02</internalNodes>
      <leafValues>
        8.0617552995681763e-01 -1.4328499138355255e-01</leafValues></_>
    <_>
      <internalNodes>
        0 -1 32522 -2.9183186590671539e-02</internalNodes>
      <leafValues>
        -7.5366359949111938e-01 1.7687292397022247e-01</leafValues></_></weakClassifiers></stage15>
</opencv_storage>
