<?xml version="1.0"?>
<opencv_storage>
<stage14>
  <maxWeakCount>9</maxWeakCount>
  <stageThreshold>-2.0077359676361084e+00</stageThreshold>
  <weakClassifiers>
    <_>
      <internalNodes>
        0 -1 93677 7.8179985284805298e-03</internalNodes>
      <leafValues>
        -8.2521945238113403e-01 5.0561796873807907e-02</leafValues></_>
    <_>
      <internalNodes>
        0 -1 18157 1.2721141800284386e-02</internalNodes>
      <leafValues>
        -7.2247034311294556e-01 1.0132919996976852e-01</leafValues></_>
    <_>
      <internalNodes>
        0 -1 52118 1.0530665516853333e-02</internalNodes>
      <leafValues>
        -3.1297445297241211e-01 5.7819133996963501e-01</leafValues></_>
    <_>
      <internalNodes>
        0 -1 134642 -3.8981897523626685e-04</internalNodes>
      <leafValues>
        2.1552054584026337e-01 -6.5790069103240967e-01</leafValues></_>
    <_>
      <internalNodes>
        0 -1 65817 -5.3713619709014893e-03</internalNodes>
      <leafValues>
        -8.5720670223236084e-01 1.7876563966274261e-01</leafValues></_>
    <_>
      <internalNodes>
        0 -1 107041 -6.1287721619009972e-03</internalNodes>
      <leafValues>
        5.0792932510375977e-01 -2.9967567324638367e-01</leafValues></_>
    <_>
      <internalNodes>
        0 -1 145417 -3.3245463855564594e-03</internalNodes>
      <leafValues>
        3.0281728506088257e-01 -4.3249735236167908e-01</leafValues></_>
    <_>
      <internalNodes>
        0 -1 136333 3.0342098325490952e-03</internalNodes>
      <leafValues>
        -5.2357113361358643e-01 2.6381942629814148e-01</leafValues></_>
    <_>
      <internalNodes>
        0 -1 5659 -5.4530732333660126e-02</internalNodes>
      <leafValues>
        -9.1454827785491943e-01 1.3560433685779572e-01</leafValues></_></weakClassifiers></stage14>
</opencv_storage>
