<?xml version="1.0"?>
<opencv_storage>
<stage3>
  <maxWeakCount>5</maxWeakCount>
  <stageThreshold>-1.8079947233200073e+00</stageThreshold>
  <weakClassifiers>
    <_>
      <internalNodes>
        0 -1 32630 2.6300545781850815e-02</internalNodes>
      <leafValues>
        -9.0950423479080200e-01 1.1081442236900330e-01</leafValues></_>
    <_>
      <internalNodes>
        0 -1 52328 3.7982665002346039e-02</internalNodes>
      <leafValues>
        -8.5401540994644165e-01 2.7784553170204163e-01</leafValues></_>
    <_>
      <internalNodes>
        0 -1 69903 6.6868495196104050e-03</internalNodes>
      <leafValues>
        -8.5644072294235229e-01 2.3022307455539703e-01</leafValues></_>
    <_>
      <internalNodes>
        0 -1 140770 -4.7540604136884212e-03</internalNodes>
      <leafValues>
        5.5823582410812378e-01 -5.0893568992614746e-01</leafValues></_>
    <_>
      <internalNodes>
        0 -1 122780 -2.0653404295444489e-02</internalNodes>
      <leafValues>
        -9.4978225231170654e-01 3.0058270692825317e-01</leafValues></_></weakClassifiers></stage3>
</opencv_storage>
