<?xml version="1.0"?>
<opencv_storage>
<stage16>
  <maxWeakCount>10</maxWeakCount>
  <stageThreshold>-2.0128974914550781e+00</stageThreshold>
  <weakClassifiers>
    <_>
      <internalNodes>
        0 -1 143030 -8.6575616151094437e-03</internalNodes>
      <leafValues>
        -8.4821425378322601e-02 -8.2926827669143677e-01</leafValues></_>
    <_>
      <internalNodes>
        0 -1 79276 6.5225720405578613e-02</internalNodes>
      <leafValues>
        -5.3104269504547119e-01 2.4983525276184082e-01</leafValues></_>
    <_>
      <internalNodes>
        0 -1 46218 -2.2599799558520317e-03</internalNodes>
      <leafValues>
        1.9416724145412445e-01 -7.2969180345535278e-01</leafValues></_>
    <_>
      <internalNodes>
        0 -1 41185 4.8455767333507538e-02</internalNodes>
      <leafValues>
        1.4082613587379456e-01 -7.9222315549850464e-01</leafValues></_>
    <_>
      <internalNodes>
        0 -1 30834 2.0623192191123962e-02</internalNodes>
      <leafValues>
        1.5132153034210205e-01 -8.1875300407409668e-01</leafValues></_>
    <_>
      <internalNodes>
        0 -1 116193 -4.7434195876121521e-03</internalNodes>
      <leafValues>
        1.5932932496070862e-01 -7.0470523834228516e-01</leafValues></_>
    <_>
      <internalNodes>
        0 -1 75483 2.1165814250707626e-02</internalNodes>
      <leafValues>
        1.4342935383319855e-01 -7.5010579824447632e-01</leafValues></_>
    <_>
      <internalNodes>
        0 -1 55436 4.0406696498394012e-03</internalNodes>
      <leafValues>
        -2.9663190245628357e-01 4.4504612684249878e-01</leafValues></_>
    <_>
      <internalNodes>
        0 -1 59287 1.0118668898940086e-02</internalNodes>
      <leafValues>
        -2.2919741272926331e-01 5.1391249895095825e-01</leafValues></_>
    <_>
      <internalNodes>
        0 -1 53468 -4.0713019669055939e-02</internalNodes>
      <leafValues>
        -7.4301064014434814e-01 1.5988531708717346e-01</leafValues></_></weakClassifiers></stage16>
</opencv_storage>
